%YAML:1.0
---
opencv_ml_svm:
   format: 3
   svmType: C_SVC
   kernel:
      type: LINEAR
   C: 2.6699999999999999e+00
   term_criteria: { epsilon:1.1920928955078125e-07, iterations:1000 }
   var_count: 64
   class_count: 10
   class_labels: !!opencv-matrix
      rows: 10
      cols: 1
      dt: i
      data: [ 0, 1, 2, 3, 4, 5, 6, 7, 8, 9 ]
   sv_total: 45
   support_vectors:
      - [ -2.88947504e-05, 1.33526788e-04, 5.09455567e-05,
          2.64995142e-05, 1.44424916e-06, -3.62350056e-06,
          -6.93814172e-07, 6.06845390e-07, 4.70853884e-05,
          6.42058149e-05, -5.89618394e-05, -1.14070244e-05,
          -1.70064068e-05, -1.61846856e-05, -3.75712370e-05,
          -1.35054433e-05, -9.72499256e-05, -1.44165224e-05,
          -4.85821402e-05, -1.55684920e-05, 5.52099164e-06,
          4.63682445e-05, 3.80410529e-05, 7.83443538e-05, 6.68720240e-05,
          7.27886527e-06, 4.73798053e-07, 5.10441350e-05, 3.65534979e-05,
          4.50754305e-05, 4.04115235e-05, 9.72234047e-05, 3.00587362e-05,
          -4.68812868e-05, 3.44403124e-05, 8.21447029e-05,
          -7.06506989e-06, 3.52480347e-05, 8.38779888e-05,
          7.53085624e-05, -5.29206336e-05, -5.05107673e-05,
          4.60855954e-05, 4.54721376e-05, 5.09835445e-05, 2.26430675e-05,
          7.49207175e-05, 3.50248483e-05, 7.34866189e-05, 1.57270246e-04,
          1.05217361e-04, 5.47205091e-05, -1.19776505e-05,
          -8.33234844e-06, -3.01563923e-05, -2.66874522e-05,
          -1.51342265e-05, 1.45413549e-04, 1.20573925e-04,
          1.49466996e-05, -2.36779465e-06, -1.38209380e-05,
          -6.68014945e-06, 2.67613850e-05 ]
      - [ 5.86181523e-05, 1.11838737e-04, 8.20036003e-05,
          -7.65611694e-05, 6.55572421e-06, -5.19632013e-05,
          -8.23249411e-06, 2.84642047e-05, 5.56378473e-05,
          7.06593200e-05, 5.10501268e-05, -8.89745425e-05,
          -1.30344561e-04, -4.82433970e-05, -1.04803170e-04,
          1.66441914e-05, -3.90077766e-05, 1.71442680e-05,
          -1.02552774e-04, -3.34400975e-05, -3.95322095e-05,
          -2.60279535e-06, 1.14691284e-04, 1.08062479e-04,
          5.17488406e-05, 5.03921219e-05, 3.07321934e-05, 4.46200320e-05,
          2.78191801e-05, -4.81209972e-05, 7.86476521e-05,
          9.02786342e-05, -1.05591615e-04, -2.67008454e-05,
          4.40074145e-05, 5.35287036e-05, 7.30768306e-06, 4.31359222e-05,
          -8.43464477e-06, -4.43028011e-06, -6.30468639e-05,
          -7.58761234e-05, 3.42824433e-06, 2.94252623e-05,
          1.16563890e-04, 5.13719060e-05, 1.18094185e-05, 9.69526718e-06,
          8.29312994e-05, 1.74809160e-04, 1.00161160e-04,
          -2.56470230e-05, -8.79592408e-05, -9.78134340e-05,
          -8.63035166e-05, -2.76620067e-05, 9.05446650e-05,
          3.66183267e-05, 1.88782906e-05, -1.22256079e-05,
          -1.25413761e-04, -3.57810241e-05, 1.95658613e-05,
          2.34681829e-05 ]
      - [ 1.24563710e-04, 1.47121144e-04, 4.54589208e-05,
          -5.16530527e-05, 3.60739541e-05, -1.70850708e-05,
          -3.63723802e-06, 2.30246269e-06, 9.14922857e-05,
          -1.17587704e-04, 2.21772461e-05, -1.39747674e-04,
          -8.05500531e-05, -8.35165847e-05, -1.16368312e-04,
          -2.73660298e-05, 8.85149711e-05, -5.90075506e-05,
          -1.00420082e-04, -1.62430893e-04, -3.55487828e-05,
          -4.00520112e-05, 3.66529184e-06, 7.40755204e-05,
          1.29344771e-04, 2.80841690e-04, 4.78943657e-05, 2.85529109e-06,
          -4.91801329e-05, 2.90313551e-06, 8.13231818e-05,
          1.03113263e-04, 1.74511388e-05, -2.72719917e-05,
          2.28419085e-05, 2.88900810e-05, -3.74160954e-05,
          3.31436713e-05, 3.69063819e-05, 6.75233023e-05, 2.69351785e-05,
          6.52372255e-05, 8.62702436e-05, 1.17427098e-05, 1.76356785e-04,
          4.43488098e-05, 5.61150773e-05, 1.75876503e-05, 4.63677570e-05,
          2.55329487e-05, 8.52726589e-05, 1.23664766e-04, 6.41646693e-05,
          -8.29604323e-06, -9.78866519e-05, -8.58978674e-05,
          -2.12352461e-04, 6.95483368e-06, 1.05422987e-05,
          8.89755320e-05, -9.29590715e-06, -1.43015670e-04,
          -1.10871166e-04, 2.59478165e-05 ]
      - [ -2.37448035e-06, -4.65393787e-05, 5.32414451e-05,
          4.25774624e-06, -4.88213846e-05, -4.76779460e-05,
          -1.00785990e-04, -9.58450837e-05, -8.49615026e-05,
          -5.61528068e-05, -3.68797737e-05, -2.44646599e-05,
          2.91371271e-05, 1.26776840e-05, 8.66344817e-06, 1.37168572e-05,
          1.32571789e-04, 2.03098880e-05, 5.00390888e-05,
          -2.66049337e-05, 1.07034917e-04, 7.54102002e-05,
          1.43107056e-04, 1.16914656e-04, 1.51855143e-04, 1.33392983e-04,
          4.40573749e-05, 4.63473007e-05, -1.38718224e-05,
          -5.23156195e-05, 1.09141220e-04, 1.38546166e-04,
          -1.12894020e-04, -1.49962783e-04, -6.04491142e-05,
          -5.62269415e-05, -5.19259156e-05, 7.71163177e-05,
          6.60376027e-05, 2.00211580e-04, 3.99961173e-05, 3.18848906e-05,
          2.73033202e-05, 9.78041644e-05, 2.03721313e-04, 9.66915541e-05,
          1.18051270e-04, -3.06169773e-06, 1.45927319e-04,
          1.91902654e-04, 2.17011795e-04, 5.99822015e-05,
          -4.73081891e-05, -5.33238926e-05, -1.10100373e-04,
          3.69155023e-05, -3.49195725e-05, 2.88543270e-05,
          7.32471890e-05, -7.68000027e-05, -8.55723338e-05,
          -1.46997525e-04, -1.00375903e-04, -6.74251642e-05 ]
      - [ -8.93730394e-05, -6.54648875e-06, 6.15221288e-05,
          4.97600304e-05, 8.91491509e-05, -4.07908847e-05,
          -3.19127430e-05, -3.19102073e-05, 1.02833270e-04,
          3.28077440e-05, 7.39805764e-05, -3.85693966e-05,
          5.33977436e-05, 6.09739288e-07, -7.46519727e-05,
          -1.06089123e-04, 3.73665498e-05, 6.27375048e-05,
          -5.54991457e-05, -3.71039787e-05, -4.07277657e-05,
          5.47956297e-05, 6.07680195e-05, 1.07810782e-04, 6.40952858e-05,
          1.26259169e-04, -9.40986793e-05, -1.99055448e-05,
          -1.72720538e-05, 3.92687980e-05, 5.78811341e-05,
          9.17224897e-05, 1.06508291e-04, 6.57877972e-05, 4.56899761e-06,
          -3.38962127e-05, -8.56134502e-05, -1.85744484e-05,
          -1.92428797e-05, 1.25801322e-04, 9.64741557e-05,
          -3.18079619e-05, -8.10378478e-05, -9.72955386e-05,
          3.38669597e-05, 8.61689186e-05, 5.00926726e-05, 7.59152608e-05,
          -3.87996261e-05, 5.41721565e-05, 2.96038943e-05,
          9.39286183e-05, 2.59834851e-05, 4.47881757e-06,
          -9.70692345e-05, -9.85983424e-05, 5.16558032e-07,
          7.61665651e-05, 7.07077052e-05, 2.77728373e-06, 1.39102312e-05,
          -9.04334011e-05, -6.96982897e-05, -8.62963861e-06 ]
      - [ -1.61054806e-04, -9.41967082e-05, 1.44702979e-04,
          1.03729522e-04, 4.44740472e-05, -2.17938541e-05,
          -4.54195433e-05, -3.29516370e-05, -7.91677303e-05,
          1.10998462e-05, 1.41711116e-05, 1.03829452e-05, 2.31055546e-05,
          2.45731553e-05, 1.71137999e-05, 4.83574804e-05,
          -1.79937488e-05, 1.48440711e-06, 2.95588529e-06,
          1.05695362e-05, 1.29295557e-04, 3.53263495e-05, 3.06738038e-05,
          7.10047461e-05, 9.05226625e-05, 4.81726966e-05, 1.01770522e-04,
          7.41959011e-05, 3.50975024e-05, 5.72431345e-05, 4.14647948e-05,
          5.01270952e-05, 1.52593479e-04, -3.69591107e-05,
          -1.10486078e-04, -1.54651832e-04, -2.33419796e-05,
          1.20164725e-04, 1.30547007e-04, 2.39134039e-04, 1.30881002e-04,
          -2.80586210e-05, -4.07016087e-05, -1.27772910e-05,
          4.81775314e-05, 1.05600891e-04, 1.89016850e-04, 1.52752924e-04,
          6.26397523e-05, 1.48082181e-04, 6.13979792e-05, 7.10419117e-05,
          1.71353022e-05, -2.50530939e-05, -4.99735652e-05,
          -2.90212520e-05, 2.66403658e-05, 4.98162517e-05,
          -3.75167292e-05, -1.71646039e-04, -1.92315965e-05,
          -3.37260790e-05, -5.92976758e-05, 1.22915662e-05 ]
      - [ 8.85138943e-05, 5.97536346e-05, -2.17949801e-05,
          -9.09735463e-05, -1.50963693e-04, -4.94787164e-05,
          -3.82644466e-05, -2.58376567e-05, -4.87441612e-05,
          -5.02496041e-05, 5.15869506e-05, -4.60389747e-05,
          -5.59776418e-05, -6.07954717e-05, -9.92900023e-05,
          8.72107485e-05, -9.51336260e-05, -8.87388669e-05,
          4.59446237e-05, -8.03996227e-05, 1.25527091e-04,
          9.89381369e-05, 1.05964362e-04, 1.48802792e-04, 1.02061524e-04,
          -2.13727490e-05, -6.02891014e-05, 5.20651120e-05,
          1.37018505e-04, 3.97108633e-05, 1.19303702e-04, 9.98872492e-05,
          1.18536649e-04, 6.77038988e-05, 6.86464555e-05,
          -1.16316562e-06, -7.01726603e-05, 2.60322358e-05,
          6.73720861e-05, 9.62621270e-05, 7.69761173e-05, 1.54823763e-04,
          2.91390243e-05, 1.19801560e-04, 4.94677479e-05, 3.07810260e-05,
          4.45172955e-05, -6.89390363e-05, 3.89624802e-05,
          2.41844082e-05, 2.02518684e-04, 7.24863639e-05,
          -5.85421776e-06, -1.65555612e-05, -6.29073184e-05,
          -5.72478857e-05, -2.48911765e-05, -3.50562841e-05,
          1.07282787e-04, 2.67654086e-05, -3.62949941e-05,
          -6.09026711e-06, -3.63279833e-05, -1.82009517e-05 ]
      - [ 5.76846505e-05, 1.38647680e-04, 1.34930771e-04,
          -7.73238935e-05, 1.33523921e-04, -1.23453050e-04,
          -2.27649027e-04, -6.92079484e-05, -3.50781229e-05,
          7.82501011e-05, -6.78073920e-05, 3.58628386e-05,
          5.44863578e-05, 5.13210834e-05, -2.02646173e-04,
          -7.36363727e-05, -8.59934662e-05, -3.37177953e-05,
          -5.90986238e-05, 1.74806337e-05, 2.91864999e-05,
          1.81454001e-04, 9.15585697e-05, 1.72317101e-04, 8.09984995e-05,
          1.14208829e-04, -5.20972317e-05, 1.28732485e-04,
          4.77136200e-05, -6.36863115e-05, -3.83700281e-05,
          -6.74980984e-05, -4.27991072e-05, -1.43461322e-04,
          -7.79032271e-05, -1.18404467e-04, -1.51771572e-04,
          1.56180140e-05, 2.10751514e-05, 1.10061854e-04, 7.58402675e-05,
          -1.94803815e-05, -2.05546730e-05, -7.83864525e-05,
          2.03116404e-04, -2.38320063e-05, 1.42767632e-04,
          -8.87464266e-05, 1.74650486e-04, 1.50820168e-04,
          1.00139390e-04, 3.58750040e-05, 6.90531233e-05,
          -1.74184024e-05, -1.73655746e-04, -1.77115275e-04,
          -8.56055849e-05, 2.05119832e-05, -6.57404380e-05,
          -1.16032243e-04, -6.71855087e-05, -1.46629187e-04,
          -6.60041042e-05, 9.58626188e-05 ]
      - [ 1.57854389e-04, 1.12041722e-04, 6.93471975e-06,
          -7.81352646e-05, 3.06946677e-05, -9.73472415e-05,
          -1.19394026e-04, -1.69925843e-04, -4.16122857e-05,
          -7.91160419e-05, -4.96713692e-05, -3.01791333e-05,
          -6.46274566e-05, 1.33666690e-05, -1.19825476e-04,
          -6.87574429e-05, 2.03536947e-05, 8.71180018e-05,
          -1.66068712e-05, -2.38969806e-05, 3.21755324e-05,
          -4.06561230e-06, 1.31382956e-04, 1.69756109e-04,
          2.27243392e-04, -3.78174736e-05, 3.68533824e-06,
          2.16033135e-04, -1.69261893e-05, -4.29019383e-05,
          1.22985002e-04, 2.34428546e-04, -1.61395306e-04,
          -1.01598525e-04, -1.93080268e-05, -2.38236644e-05,
          -9.13307231e-05, 9.21381798e-05, 7.94916778e-05,
          1.28105516e-04, 1.57349656e-04, 2.18276851e-04,
          -3.25320107e-05, 1.15970461e-05, 1.30020897e-04,
          4.12339032e-05, 7.58781462e-05, 4.81544776e-05, 1.58749041e-04,
          2.33023515e-04, 1.62688331e-04, 1.46024831e-04, 1.41254395e-05,
          6.44105749e-05, -2.15122691e-05, -1.17073942e-05,
          4.96824123e-06, -6.79731284e-06, 2.53182428e-04,
          1.75966925e-04, -7.50864319e-06, -2.13489373e-04,
          -1.15689523e-04, -1.96610945e-05 ]
      - [ 1.37797237e-04, 1.27560153e-04, 2.17011795e-04,
          -9.36458455e-05, -1.00777594e-04, 7.67435995e-05,
          1.00116638e-04, 9.53489007e-07, -4.04743150e-06,
          -1.16901545e-04, 7.42961856e-06, -1.20941462e-04,
          -6.61938539e-05, 7.30655956e-05, -4.46530757e-05,
          -1.03947845e-04, 7.77645837e-05, -6.52933450e-05,
          -8.20312780e-05, -1.34045258e-04, -2.78620519e-05,
          -1.57861814e-05, -5.10179161e-05, -9.35122589e-05,
          5.27048905e-05, 2.01483941e-04, 2.13088661e-05, 9.63262137e-05,
          -1.03373364e-04, -1.47422819e-04, -9.87116655e-05,
          1.04999759e-04, -1.32339574e-06, 8.07755496e-05,
          -2.00181850e-04, -1.07823267e-04, -1.15927985e-04,
          -1.49205618e-04, 1.08390423e-05, 9.02737956e-05,
          5.50654386e-06, 8.25396128e-05, -1.75831534e-04,
          -3.78759178e-05, -6.52340168e-05, -1.37163224e-04,
          -1.19086479e-04, -4.51519845e-05, 1.65344391e-04,
          -9.94335714e-05, 9.90357948e-05, -2.29980578e-04,
          -2.46416603e-04, -1.71874766e-04, 1.24518425e-04,
          -6.09152630e-05, 5.70409065e-05, 8.71915745e-06,
          -1.83527838e-04, -1.89009040e-06, -1.94463573e-04,
          -2.22262286e-04, 3.47470882e-06, 3.46560584e-04 ]
      - [ 5.45602270e-05, 4.39575160e-05, -2.57340889e-05,
          -1.22841055e-04, -2.59615081e-05, -1.18009884e-05,
          8.36884647e-05, 1.84724868e-07, -2.30123447e-07,
          -9.20754673e-08, 1.59676230e-04, -1.32272748e-04,
          -7.23451813e-05, -5.33464117e-05, 6.92088652e-05,
          1.08360773e-05, 1.43776473e-04, 1.79693652e-05,
          -5.27416923e-05, -6.31126022e-05, -6.12950607e-05,
          -3.69086206e-06, -4.58639151e-05, -3.30182120e-05,
          8.10216297e-05, 6.36850309e-05, 8.44776241e-06, 4.37297458e-05,
          -1.48565407e-04, -1.22651938e-04, -2.02349474e-05,
          7.96765526e-05, 1.14511662e-04, 8.23707305e-05, 8.50011384e-06,
          -9.53527342e-05, -5.88299736e-05, -1.01583661e-04,
          -4.94021879e-06, 2.61684327e-05, 7.72233252e-05,
          5.23239833e-05, -2.44305684e-05, -3.04470504e-05,
          -3.44807595e-05, -3.70042508e-05, -3.25126603e-05,
          4.01119996e-06, -5.94238227e-05, -7.70417464e-05,
          -2.57746906e-05, -1.18138250e-05, 5.30522520e-05,
          3.00038828e-05, 1.45251015e-05, 1.80052448e-05,
          -5.11523940e-05, -1.03349514e-04, -1.36183138e-04,
          1.29793101e-04, 1.94932600e-05, -2.42485257e-05,
          -2.79070282e-05, 2.79147989e-05 ]
      - [ -3.38069694e-05, -1.42167686e-04, -1.37810013e-04,
          -3.09155963e-04, -1.13631853e-04, -1.18090495e-04,
          2.11530951e-05, -2.93717952e-04, -1.21364021e-04,
          -4.18318436e-04, 1.70106461e-04, 9.21823812e-05,
          1.65609199e-05, 4.93221050e-05, 1.64529381e-04, 7.94190419e-05,
          2.36608059e-04, 2.74224149e-04, 2.19487920e-04, 3.38658807e-04,
          2.45766831e-04, -9.57311131e-05, -2.25349155e-04,
          7.50765957e-06, 2.65188246e-05, -7.22687328e-05,
          9.77912568e-05, -8.61778608e-05, -1.10686109e-04,
          -2.95069854e-04, 2.44665862e-05, 1.78301940e-04,
          -1.18463038e-04, -1.46018821e-04, -2.03771473e-04,
          3.71600800e-05, -7.60666662e-05, -8.94639197e-06,
          2.48309952e-05, 1.05029503e-04, 2.18578047e-04, 2.60270492e-04,
          1.32687361e-04, 1.29364480e-05, -1.92754469e-05,
          3.60451886e-05, 3.20912695e-05, -6.00526146e-05,
          4.05080245e-05, -1.53915811e-04, -2.95771053e-04,
          -1.00446603e-04, 6.15942481e-05, -2.06348905e-05,
          2.01104383e-04, 1.60087220e-04, 3.02469307e-05,
          -2.35942916e-05, -9.58677410e-05, -9.10059753e-05,
          -1.05306135e-04, -1.08849112e-04, -4.12248592e-05,
          1.05836298e-04 ]
      - [ -4.36609407e-05, 1.56096576e-05, 4.17975971e-05,
          4.35723086e-06, 2.72968355e-05, 3.84235100e-05, 6.53162351e-05,
          -2.69215889e-05, -6.57700730e-05, -3.91417962e-05,
          9.58352903e-05, 2.32851889e-05, 8.47389492e-06, 4.05288883e-05,
          -5.72336066e-05, -7.78298418e-05, 8.94490222e-05,
          1.45239446e-05, -5.66172603e-05, -5.67977404e-05,
          -4.07123252e-06, -9.40878908e-06, -1.45616159e-05,
          -7.59518298e-06, 1.88675931e-05, 5.35108629e-05,
          6.67558998e-05, -6.36343757e-05, -7.12588153e-05,
          -6.28059133e-05, 2.42115239e-05, 9.16553035e-05,
          6.95778435e-05, 1.04291110e-04, 7.97381581e-05,
          -1.16266543e-04, -5.64410584e-05, -5.33114253e-05,
          1.13306232e-05, 6.46728004e-05, 7.97242901e-05,
          -3.59729602e-05, -7.12931287e-05, -1.00212172e-04,
          -2.56461481e-05, -1.74192810e-05, -2.00223749e-05,
          1.70679759e-05, -6.85340347e-05, -1.04702151e-04,
          -2.97587417e-06, -3.75819000e-05, -2.36304222e-05,
          -5.16293148e-05, 3.27250782e-05, 3.69694462e-05,
          1.64939902e-05, -2.38139219e-05, -9.59811514e-05,
          2.18283694e-05, 5.43344686e-06, 1.16080719e-05, 4.77227804e-05,
          3.75647178e-05 ]
      - [ -1.78689588e-04, -2.14066487e-04, 7.39285242e-05,
          2.74724793e-04, 8.36457093e-06, 2.91737433e-06, 3.68576657e-05,
          5.13490136e-07, 6.53905226e-06, -6.03998160e-06,
          2.44636321e-04, 6.59364741e-06, -2.22236145e-06,
          1.25387698e-04, 1.69829204e-04, 1.13718212e-04, 3.29457369e-04,
          2.24762363e-04, 3.19461251e-04, 2.34654319e-04, 1.70023741e-05,
          -1.76654881e-04, -9.76934462e-05, 3.40542065e-05,
          1.80580624e-04, 3.17262544e-04, -3.01227788e-04,
          3.46539600e-05, -1.40657270e-04, -3.16197606e-04,
          -4.83099102e-05, 2.14210522e-04, 1.43319694e-05,
          1.19257211e-05, -1.46000384e-04, 6.55515250e-05,
          4.24627651e-05, -1.74872315e-04, 2.10131679e-04,
          5.83258225e-05, 1.35481634e-04, -1.15257040e-04,
          -1.38483752e-04, -3.37354686e-05, 1.20298228e-05,
          1.76742960e-05, -5.42987152e-07, 4.38675379e-05,
          -5.09840902e-05, -5.05801814e-04, -1.12311376e-04,
          -1.07788852e-04, -1.90371848e-05, 8.07854958e-05,
          -2.34457882e-04, 1.91179031e-04, 8.98552971e-05,
          -8.46447583e-05, -3.26261448e-04, -1.25445818e-04,
          5.95599922e-05, 2.04041411e-04, 7.90585982e-05,
          -3.49932787e-04 ]
      - [ 1.57082613e-04, 7.12973706e-05, -1.46774837e-04,
          -2.54831830e-04, -6.91382374e-05, 4.25689541e-05,
          4.18992313e-05, 5.15544116e-06, -1.22268291e-04,
          -6.72046008e-05, -4.12473382e-05, -3.08048329e-05,
          -1.83567376e-04, -1.68369515e-04, -2.25856002e-05,
          1.31036228e-04, -4.77490357e-06, -1.86157486e-05,
          -4.93558146e-05, -6.93660477e-05, 1.00279292e-04,
          7.71482155e-06, 1.24263727e-06, -2.68084591e-06,
          -6.95879426e-05, -1.00179477e-05, 9.02158499e-05,
          1.41722703e-04, 6.26717301e-05, -1.67595426e-05,
          -5.67336210e-05, -1.93744363e-05, 3.76475618e-05,
          1.71248379e-04, 7.87310091e-06, -2.76297651e-04,
          -3.86599604e-05, -6.55988988e-05, 4.03996310e-05,
          1.08955583e-05, 8.81150409e-05, 9.01413441e-05,
          -6.19111870e-06, 6.56753764e-05, -7.85717784e-05,
          -1.45485115e-04, -1.19456272e-04, -3.51405251e-05,
          -7.23965131e-05, -1.64494159e-05, -1.05381652e-04,
          9.61283263e-07, 4.22748417e-05, -6.60784849e-08,
          4.73403707e-05, -1.01976322e-04, -4.18890704e-05,
          -1.43602112e-04, -1.42907636e-04, 1.42524717e-04,
          4.96295688e-05, -6.85585910e-05, 3.40895167e-05,
          4.79866321e-05 ]
      - [ 7.94040097e-05, -1.16167644e-06, -4.75322922e-05,
          -3.37588688e-04, 1.45087661e-05, -1.09736675e-05,
          5.27362827e-05, -2.49119737e-04, -3.58268226e-05,
          -1.77354508e-04, 2.57298176e-04, -1.51549420e-06,
          5.28730416e-05, 1.84185687e-04, -5.20466892e-05,
          1.26149689e-05, 5.76954371e-05, -1.05876534e-04,
          1.07184504e-04, 4.62034295e-05, 2.35379310e-04,
          -1.10159854e-04, -9.59474710e-05, -1.73281893e-04,
          -1.46108086e-05, 1.18307398e-04, -8.68604548e-05,
          -5.89149822e-05, -6.38415877e-05, -3.46662011e-04,
          -1.26974890e-04, -4.98909867e-05, -9.63850016e-06,
          2.26569973e-04, -5.01935137e-05, -3.92871414e-04,
          -2.21786089e-04, -1.38471849e-04, 3.29563773e-05,
          9.68457534e-05, 1.67039150e-04, -3.46465131e-05,
          -3.67840803e-05, -3.22646083e-04, -4.62418211e-05,
          -1.32591027e-04, -5.18255329e-05, -1.24526792e-04,
          -2.97690281e-06, -2.10404891e-04, -9.09638475e-05,
          -4.53637549e-05, -8.85303089e-05, -2.09714544e-05,
          4.27587702e-06, -5.46028277e-05, -4.12299560e-05,
          -3.16006699e-05, -2.43403614e-04, -1.04255159e-04,
          3.94687631e-05, -1.07060980e-04, 1.10191897e-04,
          -1.18448297e-05 ]
      - [ 5.20932226e-05, -9.17738216e-05, -1.73836670e-04,
          -2.17046196e-04, -1.24054004e-05, -2.40546960e-05,
          3.07908704e-05, -1.04597762e-04, -2.55879044e-04,
          -1.07325599e-04, 1.14753013e-04, -4.54202782e-05,
          3.60000631e-05, 7.23119956e-05, -4.22413177e-05,
          -1.56003771e-05, 1.93994230e-04, 1.46144201e-04,
          -1.16315627e-04, 7.21789766e-05, -7.41529366e-05,
          -1.21753385e-06, -1.21235498e-05, 8.35176650e-07,
          2.71007120e-05, -1.17836222e-04, -2.03543270e-04,
          2.01990493e-04, -1.13681883e-04, -2.12231069e-04,
          1.38161486e-04, 1.23747523e-04, 1.71524167e-04, 2.71329103e-04,
          -1.55909860e-04, -3.85483669e-04, -3.15540201e-05,
          -1.70081868e-04, 3.03384568e-05, 8.64001267e-05,
          1.39435157e-04, 1.33626920e-04, 4.29630963e-05,
          -1.24580920e-05, -1.27521998e-04, -1.54585970e-04,
          -4.19645585e-05, -1.05868612e-05, -1.68550425e-04,
          -3.71687383e-05, -1.32963214e-05, -5.07993791e-05,
          1.76298945e-05, 5.23133986e-06, 1.64848694e-04, 9.56903095e-05,
          -1.48318213e-04, -2.13395921e-04, 1.00725090e-04,
          2.17835754e-04, -5.28255841e-05, -1.18199830e-04,
          -6.00528110e-05, -1.71168096e-04 ]
      - [ -7.47081431e-05, -2.15318592e-04, -1.46168488e-04,
          -1.44700709e-04, -5.15712192e-04, 3.66930064e-04,
          2.12243525e-04, 1.59628216e-05, -5.32597660e-05,
          1.50496662e-05, -1.75412115e-05, 1.30030503e-05,
          2.61301757e-04, -2.47072221e-05, 1.37246083e-04,
          -2.19515467e-04, 2.65402166e-04, 2.10702870e-04,
          1.19532953e-04, 3.18782841e-05, -3.16257938e-04,
          -5.08971163e-04, -5.45623363e-04, 1.80109389e-04,
          1.85697601e-04, 3.92448739e-04, -3.90308196e-05,
          -5.79033513e-05, -1.95541405e-04, -2.19080248e-04,
          -2.89101561e-04, 2.59470398e-04, 6.73900067e-04,
          3.36622994e-04, 1.46870632e-04, 1.50832289e-04, 9.93561916e-05,
          9.35517983e-06, 3.13400611e-04, 3.56450677e-04, 3.03576322e-04,
          -3.38181344e-05, 7.72711355e-05, 4.24141435e-05,
          -5.88942275e-05, 2.98897590e-04, 4.45323065e-04,
          5.34029328e-04, -3.37406702e-04, -3.73514544e-04,
          -1.23826700e-04, 2.32666644e-04, 3.35494231e-04,
          1.82861506e-04, -4.80647781e-04, 2.10063474e-04,
          -2.03534131e-04, -1.52849374e-04, 2.47124408e-04,
          2.92909186e-04, 2.91137985e-04, 3.68910813e-04, 3.81529913e-04,
          1.43157042e-04 ]
      - [ -1.39310432e-04, -1.29716820e-04, -1.17717034e-04,
          1.61962453e-04, -4.01073157e-05, -9.17126272e-06,
          -1.72592685e-04, -8.42871013e-05, -6.24273162e-05,
          -1.25253009e-05, 6.73841496e-05, 6.86203566e-05,
          9.22588661e-05, 1.28081243e-04, 1.52977154e-04, 7.76880624e-05,
          3.95451243e-05, 7.21785618e-05, 1.38983407e-04, 1.55224829e-04,
          5.14610001e-05, -2.75003731e-05, 1.31416391e-05,
          1.39634767e-05, -4.07443513e-05, -1.15592506e-04,
          5.97229082e-05, -3.92606817e-05, 3.84273444e-05,
          -1.14411974e-04, 2.08293641e-05, -1.24759054e-05,
          -2.98167233e-05, -1.06319734e-04, -4.45871010e-05,
          -4.82775213e-05, -1.32563646e-05, 5.34653191e-05,
          -4.57872011e-05, 5.31715668e-05, 4.01736761e-05,
          4.56219605e-05, 1.93913482e-04, 1.36466377e-04, 3.27128801e-05,
          1.28458734e-04, 8.84096444e-05, -5.48362041e-05,
          3.74462179e-05, 4.65316771e-05, -4.76627574e-05,
          1.22307989e-04, 1.28589774e-04, 1.76924732e-04, 5.40543151e-05,
          3.10707874e-05, -1.23137681e-04, -5.23258641e-05,
          -6.77872667e-05, -5.37837914e-05, 1.31441775e-04,
          -8.51421646e-05, -1.16036674e-04, -2.16710047e-04 ]
      - [ -1.22111305e-04, -1.05507163e-04, -3.18784769e-05,
          -1.70819692e-06, 7.51855405e-05, 7.20926109e-05,
          -5.60061153e-06, -6.40935541e-05, -5.84252957e-05,
          7.04705462e-06, 4.92373074e-05, 3.83206752e-05, 4.87517573e-05,
          1.12740818e-04, -1.30342334e-04, -2.16973218e-04,
          3.85068051e-05, 4.51808883e-05, 5.95845559e-05, 4.86341123e-05,
          -7.95681772e-05, -4.37325507e-05, -2.20272377e-05,
          4.42205928e-05, -8.89570492e-06, 8.61814333e-05,
          7.88848629e-05, -2.22328126e-05, -1.03458086e-04,
          -2.54265597e-05, -3.30080438e-05, 8.23620139e-05,
          1.96718451e-04, 1.51511151e-04, 9.30398382e-05,
          -4.20200959e-05, -4.71337444e-05, -7.49063765e-05,
          5.47023701e-05, 1.29705513e-04, 1.17834526e-04,
          -1.14650165e-05, -1.21707919e-04, -1.88284073e-04,
          -4.38792085e-05, 5.34153551e-05, 1.43401958e-05,
          1.49773230e-04, -1.72126354e-04, -1.43349725e-05,
          -1.56344304e-05, 4.33580899e-05, 4.94457818e-05,
          -7.69043181e-05, 2.01246280e-06, -3.17834092e-05,
          -9.54498319e-05, -7.07733489e-05, 2.75419934e-05,
          9.31291725e-05, 9.89372493e-05, 9.73365750e-05,
          -5.23570416e-05, -4.77097929e-05 ]
      - [ -1.56721362e-04, -6.20489736e-05, 8.08445184e-05,
          7.35685098e-05, 6.06387075e-05, 8.90848532e-05, 7.02440673e-07,
          -6.50325455e-05, 5.41743539e-05, 1.31926699e-05,
          4.46749218e-05, 9.86273226e-05, 1.09333414e-04, 1.02668571e-04,
          2.30878883e-04, 2.79992382e-05, -2.89620293e-05,
          6.03657027e-05, 1.59442599e-04, 1.92089035e-04,
          -1.10988049e-05, 2.45848732e-05, -2.52573700e-05,
          4.90893472e-05, -5.85785128e-05, 5.78572690e-05,
          1.59820964e-04, 3.75362215e-05, -8.88335344e-05,
          1.24356220e-05, -4.28745516e-05, -9.36367724e-05,
          8.60081709e-05, -1.22644924e-04, -1.01272410e-04,
          -1.08714841e-04, 4.13791677e-05, -6.88892396e-06,
          1.07903244e-04, 1.39184966e-04, 9.77457021e-05,
          -1.43557609e-05, -4.52039603e-06, -7.56236841e-05,
          1.07277723e-04, 1.34199028e-04, 1.22323734e-04, 1.10235931e-04,
          -5.99217601e-05, -6.32454394e-05, -8.01267670e-05,
          1.24821046e-04, 9.66144871e-05, 2.42934875e-05,
          -6.41612423e-05, 1.98671205e-05, -9.32124894e-05,
          -3.90004680e-05, -1.96061286e-04, -5.52228048e-05,
          -1.02336424e-04, -3.56160090e-05, 2.74087415e-05,
          -6.12432268e-05 ]
      - [ 1.61198652e-04, 3.66029381e-05, -8.72933597e-05,
          -6.26313486e-05, -1.90416176e-04, 8.91974851e-05,
          -4.80650051e-05, -2.81031680e-05, -2.42500566e-04,
          -6.13258890e-05, 4.14405349e-06, -3.01593718e-05,
          -1.30529443e-04, 1.33855341e-04, 2.72092657e-05,
          8.07887045e-05, -5.10510035e-05, 1.10839064e-05,
          -2.29397901e-05, -2.82202109e-05, -1.28500305e-05,
          1.80232280e-04, 7.82750722e-05, 1.47901141e-04,
          -8.97248174e-05, -1.93248663e-04, 8.92832104e-05,
          6.79754594e-05, 1.93163127e-04, -2.39262463e-05,
          1.71691325e-04, -5.22441587e-05, 2.36108652e-04,
          3.08169547e-05, 8.07644974e-05, 3.44944165e-05,
          -8.15441308e-05, 2.89473741e-04, 2.49717996e-04,
          9.47083245e-05, 1.94733744e-04, 8.21199646e-05, 2.22877352e-04,
          1.21818463e-04, 7.28284213e-05, -2.53779144e-05,
          1.66745958e-04, 3.47304995e-05, 1.02097183e-04,
          -4.35538968e-05, -1.08587548e-04, 2.63246766e-04,
          4.30680593e-05, 1.37580326e-04, 4.05277278e-05, 6.44670799e-05,
          -2.00722076e-04, -1.39771524e-04, 1.16651441e-04,
          1.33059031e-04, 3.65700951e-04, 1.54441786e-05,
          -7.56733934e-05, -1.34847083e-04 ]
      - [ -1.18365097e-04, 1.83608863e-04, -1.01041085e-04,
          4.06352410e-05, -3.40459519e-06, -4.49992840e-05,
          -7.42210657e-04, -2.94420868e-04, -1.65656675e-04,
          1.93372223e-04, -1.56853770e-04, 6.44129526e-04,
          2.48975848e-04, 3.85126950e-05, -2.77224724e-04,
          -4.78073571e-06, -3.49012000e-04, -5.27329539e-05,
          1.88238584e-04, 4.97092435e-04, -1.69861727e-04,
          -1.83313823e-04, 1.38989068e-04, -5.84066787e-04,
          -4.72253567e-04, 3.42282932e-04, 1.62182012e-04,
          -2.90808646e-04, -2.33124621e-04, -2.09060279e-04,
          -3.31550138e-04, -8.77818165e-05, 4.51855158e-04,
          4.03335347e-04, -1.67569888e-04, -6.71110829e-05,
          4.38903771e-05, -2.80071731e-06, 3.18080594e-04,
          3.96948424e-04, 3.78432480e-04, -8.84373148e-05,
          -7.73491993e-05, 2.10438840e-04, -1.43723300e-04,
          5.30683086e-04, 2.52918544e-04, 3.63772240e-04,
          -4.18847601e-04, -2.93433637e-04, -1.05272215e-04,
          3.02742032e-04, 2.75014492e-04, 2.52696831e-04,
          -9.03366090e-05, -1.69413543e-04, -4.54577064e-04,
          -2.70648074e-04, -1.35152542e-04, 2.00085778e-05,
          -9.44397325e-05, 1.36791336e-04, -1.76434391e-04,
          1.18603130e-04 ]
      - [ -9.60136676e-05, -1.66828206e-04, -3.73751209e-05,
          7.67586389e-05, 4.42539895e-05, 1.34543143e-05,
          -6.65921834e-05, -5.36062498e-06, -4.64773657e-05,
          -1.79777089e-05, -8.16009197e-05, 1.28648144e-05,
          1.08061293e-04, 6.40133294e-05, 6.89892840e-05,
          -5.76818638e-05, 2.53169783e-05, 5.93267869e-05,
          4.07158313e-06, 1.83558819e-04, -8.84688052e-05,
          -4.46393315e-05, -3.39312573e-05, 5.80848064e-05,
          -4.72782485e-05, -1.32501053e-04, 4.33248824e-05,
          6.64660984e-05, -5.16490545e-05, -2.85098449e-05,
          4.30144428e-05, 4.99515372e-05, 1.28590356e-04, 6.61520608e-05,
          -3.03499473e-05, -3.36458215e-05, -3.86324173e-05,
          5.87550603e-05, 2.89312320e-05, 2.21005321e-05, 1.32073459e-04,
          5.89595911e-05, 2.04118642e-05, -5.32764789e-05,
          -1.86003363e-05, 2.08578822e-05, 3.40498264e-05,
          9.49091336e-05, -9.01856693e-05, -9.80894038e-06,
          -1.00201949e-04, 1.22428828e-04, 1.02671955e-04,
          5.68611467e-05, 1.02288526e-04, -1.52998273e-05,
          -6.92117101e-05, -8.73929966e-05, 5.66317649e-05,
          1.63982259e-04, 8.63904424e-05, 9.80273035e-05,
          -9.47755616e-05, -1.77670474e-04 ]
      - [ -1.55099537e-04, -6.05836249e-05, -2.31461891e-05,
          1.46384191e-04, 4.74036387e-05, 1.22772399e-05,
          -1.34752496e-04, -3.95133393e-05, -1.45621758e-04,
          -3.17561921e-06, 2.02877163e-06, 1.90442515e-04,
          8.90969677e-05, 1.18712138e-04, 8.81909800e-05, 1.83197644e-05,
          -3.98801640e-05, 3.22232299e-05, 1.64997080e-04,
          2.27710145e-04, 1.39606622e-04, -2.07418125e-05,
          8.08806653e-05, 5.86680253e-05, -3.42629537e-05,
          -1.77685324e-05, 4.20285360e-05, -2.08612028e-06,
          4.51511478e-05, 3.51921426e-06, 6.00307867e-05, 3.56917262e-05,
          -2.04628901e-04, -2.01449278e-04, -9.32472831e-05,
          -1.07967055e-04, 2.84630951e-05, 1.52265202e-04,
          -2.81876532e-06, -1.97958852e-05, -3.59960040e-06,
          -1.00001234e-05, -8.45759641e-05, 1.06428510e-04,
          1.05043027e-05, 1.49083528e-04, 2.90239550e-05,
          -3.92020083e-05, 6.65315965e-05, 8.39747227e-05,
          6.59835166e-07, -1.01565740e-04, -4.67003447e-05,
          9.83595164e-05, -2.10656453e-05, -4.04185594e-05,
          -5.34206774e-05, -4.27603627e-05, 3.58031757e-05,
          -1.73442706e-04, -2.20950296e-05, -3.87783657e-05,
          -4.96322355e-05, -1.52986220e-04 ]
      - [ -1.37429699e-04, 5.96225937e-06, 8.39505301e-05,
          2.79561558e-04, 2.70035322e-04, 7.52055057e-05,
          -1.61310149e-04, -2.12753919e-04, -9.91083216e-05,
          3.38753102e-06, 8.66648043e-05, 3.02406494e-04, 1.24957995e-04,
          1.86534890e-04, -1.95211891e-04, -2.52489233e-04,
          -9.04611639e-08, 6.48332280e-05, 7.06572901e-05,
          1.71178748e-04, -1.27268095e-05, 1.29365813e-04,
          8.57847554e-05, 1.76835267e-04, 3.77504439e-05,
          -1.76737394e-05, 1.46012142e-04, -1.24008933e-04,
          1.06187443e-04, 8.92855896e-05, 2.28689896e-04, 1.83793323e-04,
          2.16668515e-04, 8.60629880e-05, -3.81853315e-05,
          -2.25069904e-04, -7.61772799e-06, -1.51687767e-04,
          -4.38708194e-05, 2.18469431e-04, 3.09518451e-04,
          1.58200026e-04, 7.10740205e-05, -3.53145704e-04,
          -2.19455658e-04, 8.45128161e-05, 4.94867982e-06,
          8.90984229e-05, -1.28058338e-04, 1.04759441e-04,
          1.50897948e-04, -1.34801041e-04, -1.00475881e-04,
          -1.12141337e-04, -8.75086625e-05, -3.46943125e-05,
          -2.23472816e-05, 1.42912904e-06, -3.11321710e-05,
          -2.16754823e-04, -2.12263622e-04, 2.29675192e-04,
          -3.06309448e-05, -2.33589148e-04 ]
      - [ -1.10910318e-04, -1.25159044e-04, 4.71759704e-05,
          9.13714030e-05, 5.77949286e-05, 3.01378641e-05,
          -1.92896132e-05, -7.73761567e-05, -4.92965009e-05,
          -7.60033436e-05, -3.70496455e-05, 8.69175055e-05,
          5.61033012e-05, 5.51253288e-05, 9.59007011e-05,
          -2.91286815e-05, -5.89056908e-05, -1.39101421e-05,
          9.95142182e-05, 1.08416520e-04, 5.44243485e-05, 2.78149273e-05,
          -8.04352851e-07, 1.41775799e-05, -4.05745450e-05,
          -3.98337070e-05, 6.61604427e-05, 8.24279487e-05,
          7.39207098e-05, -6.98649319e-06, -2.06762852e-05,
          1.68973038e-05, -1.03165938e-07, -7.70184342e-05,
          -5.51084486e-05, -3.63126856e-05, -2.08748497e-06,
          1.35724749e-05, 4.86156823e-05, 1.05647530e-04, 2.42914084e-05,
          -4.68216022e-05, -3.99701057e-05, -5.00341666e-05,
          3.59358855e-05, 5.11080325e-05, 9.13637086e-06, 3.80513666e-05,
          -3.78876780e-06, 7.05104731e-06, 2.15173095e-05,
          -2.44786079e-05, -2.80665627e-05, 6.70486907e-06,
          7.40841051e-06, 3.89402812e-05, 2.45488191e-05, 1.44076721e-05,
          1.09919279e-06, -1.23095451e-04, -1.86711004e-05,
          1.80501775e-05, 2.48983051e-05, 1.53044020e-05 ]
      - [ -7.03995056e-06, 2.37372413e-04, 2.73789599e-04,
          -1.09645385e-04, -1.33028327e-04, -2.07189456e-04,
          1.19746583e-05, 8.10821621e-06, -4.01714322e-04,
          -4.57275091e-05, -7.94493608e-05, 5.83557376e-05,
          -1.42508885e-04, 2.13502921e-04, -2.30466205e-04,
          2.06536879e-05, -1.60150972e-04, 2.43063278e-05,
          1.23881997e-04, 1.78232032e-04, 3.68342095e-04, 3.20098450e-04,
          2.49285949e-04, 1.41998476e-04, 4.01177676e-05,
          -4.55232133e-04, -3.73623770e-04, 1.08983128e-04,
          2.29420053e-04, 4.18455224e-04, 3.17250408e-04,
          -5.37870510e-04, -4.96665416e-05, 3.05209483e-04,
          -1.89896222e-04, -2.66332296e-04, -2.14632073e-05,
          1.45882776e-04, 2.61616777e-04, -2.50344398e-04,
          -2.69783690e-04, 1.54056019e-04, 3.12376971e-04,
          -4.36860108e-04, -1.68632266e-06, -2.74958438e-04,
          2.55656487e-04, -7.03078927e-04, -6.15350218e-05,
          -2.89404445e-04, -3.93834198e-04, 1.03701393e-06,
          -7.11282919e-05, 4.39200594e-05, -2.94168130e-04,
          9.57333978e-05, -2.67697651e-05, -1.30933564e-04,
          1.23290432e-04, -1.03240913e-04, 2.79620464e-04,
          -9.36207944e-05, 2.47078715e-04, -3.99259123e-04 ]
      - [ -1.26517669e-04, -1.07262131e-04, 5.03697593e-05,
          1.69315870e-04, 2.96583952e-04, -8.08608529e-05,
          -3.44872678e-04, -2.44859286e-04, -2.51993886e-04,
          -1.12035530e-04, 1.12001297e-04, 4.74747940e-04,
          1.16971569e-04, -5.87311479e-05, -1.07587359e-04,
          5.65485243e-05, -2.29747457e-04, -2.38583834e-05,
          -9.95872106e-05, 3.31382791e-04, 2.80326698e-04,
          8.46967305e-05, 2.06533397e-04, 5.81613203e-05,
          -1.48351159e-04, -5.21711423e-04, -1.55861617e-05,
          5.05571043e-05, 1.43015030e-04, 4.91567407e-05, 6.42068408e-05,
          -4.12114168e-05, -2.42938957e-04, -2.90563650e-04,
          -2.10927647e-05, -2.23266907e-04, -9.35721255e-05,
          -2.05473596e-04, -7.26006183e-05, 1.40374061e-04,
          7.23225821e-05, 3.88512490e-05, -3.94853305e-05,
          -2.40331836e-04, -1.06426967e-04, 2.70898163e-04,
          -1.30863147e-04, 2.41584075e-05, 7.43432247e-05,
          3.59977654e-04, 9.84632352e-05, -1.34379603e-04,
          -1.51504020e-04, -5.56925588e-05, -1.32341429e-05,
          2.06730274e-05, -3.46321067e-05, 1.20482480e-04,
          8.08976802e-06, -2.29203273e-04, -2.37363798e-04,
          -5.29336576e-05, -6.38980055e-05, -1.13866285e-04 ]
      - [ -1.81391966e-04, -2.78445194e-04, 1.22676778e-04,
          9.61736805e-06, -5.64440270e-05, -1.75231515e-04,
          -3.15748795e-04, -2.99742795e-04, -2.24572301e-04,
          -2.31003592e-04, -3.30122784e-05, 1.99545015e-04,
          2.03082294e-04, 2.18333807e-04, 6.74863477e-05,
          -1.53935674e-04, -3.93042174e-05, 1.10199137e-04,
          8.37937114e-05, 2.84009962e-04, -3.67560024e-05,
          2.12365030e-05, 1.64547819e-04, 2.09652819e-04,
          -4.62716489e-05, -2.54325336e-04, 7.97541634e-06,
          5.22233677e-05, 6.69838264e-05, -5.73716316e-05,
          1.39820142e-04, 6.11304422e-05, 2.35162806e-05,
          -1.18956392e-04, -3.36950034e-05, -3.05668247e-04,
          -2.06778059e-04, 1.00031328e-04, 1.55174930e-04,
          -1.54758218e-05, 1.62861863e-04, 2.01037037e-04,
          3.64789412e-05, -1.38046798e-05, -2.26726319e-04,
          9.68289387e-05, 7.10397362e-05, -1.61742399e-04,
          1.02744380e-04, 1.84842735e-04, 4.84797929e-05, 2.51039073e-05,
          -1.21162830e-05, 2.26603908e-04, 5.14433304e-05,
          -8.60949658e-05, -1.16545278e-04, -1.42865290e-04,
          2.84275797e-04, 1.54347392e-04, -4.35332477e-05,
          4.82916403e-05, -4.89501545e-05, -3.50914604e-04 ]
      - [ 2.07380690e-05, 3.34973665e-05, 3.65399023e-06, 9.17309899e-06,
          2.47233475e-05, 4.13214184e-05, 1.10350229e-04, 1.22913807e-05,
          2.90048911e-06, 2.30339956e-05, 2.81084685e-05, 1.26080749e-05,
          -6.42107807e-06, 6.05451305e-06, -1.08526197e-04,
          -9.30602619e-05, 1.13708902e-05, 4.29385836e-05,
          -7.79944603e-05, -5.79216503e-05, -6.04612833e-05,
          -2.06957538e-05, 2.21446771e-05, 3.10354844e-05,
          3.26789886e-05, 8.24307645e-05, 3.02256394e-05,
          -7.23289995e-05, -5.09021884e-05, 4.39740215e-05,
          4.83402582e-05, 1.48616084e-06, 1.03183207e-04, 1.91502637e-04,
          1.12669419e-04, -3.76589378e-05, -4.23914935e-05,
          -8.90207448e-05, 2.42798360e-05, 8.86723865e-05,
          7.88011166e-05, -5.66419430e-06, -8.41284491e-05,
          -1.38414965e-04, -7.22885161e-05, 2.21120544e-08,
          -1.41962801e-05, 7.09326778e-05, -5.58099600e-05,
          -1.30450193e-04, 4.62929347e-05, -6.58626013e-05,
          -1.70762978e-05, -6.86685016e-05, -2.82210458e-05,
          -1.43637180e-05, 6.31520306e-05, 3.37383608e-05,
          -2.60369543e-05, -2.53158796e-05, -1.31700626e-05,
          9.10689923e-05, 8.15238818e-05, 6.95782801e-05 ]
      - [ 1.03673527e-04, 1.04909697e-04, 6.92292000e-04, 5.09609235e-04,
          5.46478434e-04, -1.50545347e-05, 4.14675858e-04,
          -3.65278363e-04, 2.54887098e-04, 4.50165244e-05,
          2.47802876e-04, 4.49570332e-04, -3.14908066e-05,
          3.69879017e-05, 1.63969944e-05, -1.08071072e-04,
          1.14178278e-04, 1.26118117e-04, 5.58062457e-05, 4.34437970e-04,
          2.97969411e-04, -1.55587157e-04, -8.45346658e-04,
          -1.56673254e-04, -3.70548310e-04, 8.22322851e-04,
          -2.05527889e-04, 2.40315101e-04, 2.11174156e-05,
          3.31603980e-04, -4.76358582e-05, -1.09541543e-04,
          5.20095462e-04, 4.63051314e-04, -1.33630412e-04,
          5.39610446e-05, 4.72288697e-09, -1.17212599e-04,
          2.41263406e-04, -1.16408024e-04, -2.94643432e-05,
          -4.44211095e-04, -4.62234544e-04, -4.47107741e-04,
          -4.01203943e-05, -3.51952185e-04, 6.02039909e-05,
          4.12304769e-04, 2.14684464e-04, -5.08997124e-04,
          1.53374465e-04, -1.13359485e-04, 5.45890798e-05,
          6.41240214e-04, -4.31897235e-04, -1.59683434e-04,
          1.60672382e-04, 1.48517705e-04, -6.62866631e-04,
          -2.82437395e-04, -5.31487865e-04, 3.13730452e-05,
          1.45752507e-04, 3.01831984e-04 ]
      - [ 1.33358088e-04, 6.06173744e-05, 1.39806389e-05,
          -1.47478568e-04, -4.22546364e-05, -6.07509446e-06,
          9.72206399e-05, 4.81661446e-05, -5.34593437e-06,
          1.33882149e-05, -1.63866480e-05, -7.34356072e-05,
          -1.40374425e-04, -1.19158685e-04, -1.02210935e-04,
          -4.03920376e-06, -4.81541938e-05, -1.04456696e-04,
          -1.41982426e-04, -1.33698544e-04, -1.33772319e-05,
          7.83517316e-05, 5.04540076e-05, 1.89022576e-05,
          -7.41304611e-05, -9.86569830e-07, -2.25047534e-05,
          2.49269269e-05, 4.35620204e-05, 8.02800423e-05, 3.19730025e-05,
          -1.21705725e-05, 1.52700930e-04, 2.11050297e-04,
          1.21448742e-04, -3.74350311e-05, -4.35586917e-05,
          -8.63223704e-06, 4.52738968e-05, 1.11334384e-05,
          -5.23713206e-05, 5.17772096e-05, -3.28543938e-05,
          -3.92196816e-05, -2.72284888e-05, -9.28822046e-05,
          -7.33420748e-05, -1.95096691e-05, -1.28828600e-04,
          -1.07734697e-04, -5.97905273e-05, 6.89430599e-05,
          3.60355516e-05, 3.55631601e-05, -9.21809551e-05,
          -5.34167884e-05, -3.41682207e-05, -4.19120952e-05,
          -1.70813964e-05, 1.45229569e-04, 1.26357263e-04,
          8.59853826e-05, 6.80266894e-05, 5.87257600e-05 ]
      - [ 9.99072290e-05, 1.67448350e-04, 2.32516351e-04,
          -2.27404715e-04, -2.91260549e-05, 5.99580344e-05,
          2.43711431e-04, 1.44030404e-04, 2.52370402e-04, 1.89938539e-04,
          -2.24810923e-04, -6.70436057e-05, -2.63930153e-04,
          3.52416937e-05, -3.24331108e-04, 6.22285006e-05,
          -1.72513726e-04, -2.06419703e-04, -1.63193938e-04,
          1.45266822e-04, -1.03296341e-04, 1.62744363e-05,
          -9.50298345e-05, -2.38166511e-04, 4.52800086e-05,
          1.16616568e-04, 7.06571154e-05, -3.38029931e-05,
          3.01014479e-05, -7.43245982e-05, -1.29906286e-04,
          -2.68928387e-04, 1.51589935e-04, 2.39932109e-04,
          1.53050030e-04, -2.12146933e-05, -1.34394315e-04,
          -2.09103542e-04, 5.23728631e-05, -7.09429369e-05,
          -6.68448483e-05, -1.76544228e-04, -2.90632481e-04,
          -5.16519998e-04, -2.40690366e-04, -3.28738883e-04,
          -5.11144644e-05, 8.33051454e-05, -1.79975206e-04,
          3.48516623e-05, -1.44670426e-04, -5.74324804e-05,
          7.96898967e-05, -1.22255136e-04, -1.83649565e-04,
          -2.31226848e-04, 1.44701044e-05, 7.19951568e-05,
          -7.84077929e-05, 8.94530240e-05, 1.17583142e-04,
          2.77413983e-05, 2.39204935e-04, 1.34031769e-04 ]
      - [ 9.17385769e-05, 3.15422440e-05, -6.10100069e-05,
          -3.01392371e-04, -1.39711890e-04, 2.30210208e-04,
          3.93974769e-04, 2.51389861e-06, -1.49505155e-04,
          -1.91431871e-04, -2.10095459e-04, -6.87020583e-05,
          -1.04772022e-04, 1.36448234e-05, 2.47738753e-05,
          -1.60571857e-04, -1.49070358e-04, -1.40090706e-04,
          -5.41916525e-04, 2.86224749e-05, -2.74792546e-04,
          -8.03222865e-05, 1.30838729e-04, 5.96107348e-05,
          -1.30827146e-04, -1.47105617e-04, -3.75284503e-06,
          1.01751109e-04, 2.42703336e-05, -1.07153806e-04,
          -2.13536783e-04, -1.11759473e-04, 3.39780614e-04,
          3.39175604e-04, 1.63631950e-04, -5.10534919e-05,
          -1.57583534e-04, -3.93976254e-04, -7.14981943e-05,
          3.76464050e-05, -2.74586910e-06, 2.23383875e-04,
          -3.43307154e-04, -3.54626332e-04, -2.47457239e-04,
          -4.28555621e-04, -2.38867447e-04, -6.62957609e-05,
          -2.26021453e-04, -6.26737165e-05, 1.67872044e-04,
          4.11337445e-04, 2.67439056e-04, 1.38566218e-04,
          -2.72041972e-04, -6.27355548e-05, 1.62841195e-06,
          -2.10497255e-05, 4.15303453e-04, 3.75152362e-04,
          5.53246573e-05, 3.97549011e-04, 9.58458695e-05,
          -1.27516223e-05 ]
      - [ 4.66752281e-05, -8.43472953e-05, -5.61259294e-05,
          8.35100072e-05, 9.98687246e-05, 6.20994542e-05,
          -4.75043271e-05, -9.53632771e-05, -4.55536174e-05,
          -1.25766062e-04, -1.16755931e-04, -4.51930173e-05,
          -2.55996456e-05, 1.64038174e-05, 1.26071711e-04,
          1.85311728e-04, -2.33923347e-04, -3.80052770e-05,
          1.72819622e-04, -3.83111656e-05, 8.01848219e-05,
          9.41147809e-05, -7.87009194e-05, -5.31454716e-05,
          -1.23720281e-04, 1.82808399e-05, 3.33622916e-06,
          2.01992676e-04, 2.93962366e-04, 4.06053332e-05,
          -3.06120601e-05, -1.08674889e-04, -1.22544006e-04,
          -1.87568323e-04, -2.50361714e-04, -6.17008991e-05,
          7.09353844e-05, 2.08145982e-04, -8.49401695e-05,
          1.64572575e-05, -3.91978065e-05, 4.61647687e-06,
          1.89956278e-04, 2.94000492e-04, 9.52543414e-05,
          -1.67124290e-05, -2.31854192e-05, -1.79068484e-05,
          -4.80862218e-05, 2.05136443e-04, -1.49839980e-04,
          -1.29397667e-04, 5.76585880e-05, 2.30572652e-04,
          4.11375440e-05, 5.56127561e-05, -3.23893209e-06,
          -9.12027681e-05, -3.34758879e-05, -1.01441343e-04,
          -3.40997241e-04, -8.40304710e-05, 1.54819645e-04,
          9.23426851e-05 ]
      - [ 1.20647972e-04, 2.24638243e-05, -4.39960313e-05,
          -4.26152546e-05, -1.19248791e-04, -3.29936120e-05,
          -1.84684013e-05, 2.91799461e-05, -2.47669268e-05,
          -2.58444452e-05, -2.08399433e-05, -9.49132882e-05,
          -1.04728999e-04, -4.24270547e-05, 1.29809545e-04,
          1.34456161e-04, -4.95429704e-05, 2.38056527e-05,
          1.50689084e-05, 1.88570139e-05, 3.23376808e-05, 5.35788458e-05,
          3.39631406e-05, -5.93642926e-06, -2.68812455e-05,
          -8.64212707e-05, -4.49186737e-05, 4.96266694e-05,
          1.06280982e-04, 6.56341872e-05, 1.86894267e-05,
          -2.65085273e-05, -6.30144132e-05, -3.05921312e-05,
          -3.58779980e-05, 1.12955977e-05, 1.87399144e-06,
          9.12531395e-05, 8.64165631e-05, -2.19603389e-05,
          -6.94859118e-05, 2.15708060e-05, 6.36350742e-05,
          1.71777341e-04, 2.89515647e-05, -5.07295481e-05,
          -2.14704414e-05, -9.62893610e-05, -4.29149586e-05,
          2.31346494e-05, -5.22284099e-05, 2.86511076e-05,
          1.72171840e-05, 2.00709674e-05, 3.12361481e-05, 2.60542984e-05,
          1.11470363e-05, -8.07002216e-05, 2.96388680e-05,
          5.91715889e-06, 1.52126149e-05, -1.51086415e-05,
          2.48619326e-05, -4.61203217e-06 ]
      - [ 4.52780732e-05, 1.95305474e-04, 9.27349174e-05,
          -1.10320951e-04, 1.33317380e-05, -3.43664142e-05,
          -4.05959028e-04, -4.30120999e-05, 1.13340939e-04,
          -2.15589953e-05, -2.50347133e-04, 3.17527301e-05,
          2.74815829e-04, -3.53332842e-04, 3.74193623e-04,
          1.25736828e-04, -5.76927909e-04, -2.35308224e-04,
          -1.12774011e-04, 3.99588345e-04, 5.84027264e-04,
          1.53854926e-04, 2.26052089e-05, -2.74813268e-04,
          -1.03564904e-04, -7.64293000e-05, -5.82705979e-06,
          -8.38379710e-05, -8.21234062e-05, 1.58757684e-04,
          -1.81980708e-04, -2.11316845e-04, -5.14896470e-04,
          -6.35360426e-04, -4.96676948e-04, -2.36257343e-04,
          -1.76869828e-04, -1.99660935e-04, -3.09603842e-04,
          -3.96055257e-04, 1.44941921e-04, 4.21655750e-05,
          2.84922862e-04, 5.63359121e-04, 1.13708877e-04, 5.35916733e-05,
          -3.36776953e-04, 3.60362756e-05, 8.98651706e-05,
          3.25272500e-04, 1.80242088e-04, 6.19017344e-04, 4.05472820e-04,
          8.00143825e-05, -2.60749046e-04, -2.07644498e-05,
          -2.82451820e-05, -7.06407955e-05, -4.00685240e-05,
          -5.19381392e-05, -3.13487486e-04, -2.64240196e-04,
          -2.84258917e-04, 1.29625943e-04 ]
      - [ 1.52557535e-04, -4.14198657e-05, -7.86997989e-05,
          -1.21082405e-04, -8.72250257e-06, -6.59264697e-05,
          -5.36069056e-05, -2.92654095e-05, -9.58240416e-05,
          -1.18367760e-04, -9.40713508e-05, 1.64807589e-05,
          -8.87173010e-05, 3.08345225e-05, 1.63861216e-04,
          1.67326041e-04, 1.07864962e-05, -4.49167328e-06,
          -1.17518182e-04, 1.57797942e-04, 3.31772571e-05,
          -2.80604563e-05, 1.19216638e-05, -3.62794708e-05,
          -3.30118492e-05, -1.42808916e-04, -3.32810123e-05,
          2.26010685e-04, -3.72109280e-05, 3.22571286e-05,
          3.71547685e-05, -6.97674623e-05, -8.24448362e-05,
          -7.08924708e-05, -1.51328743e-04, 6.62709135e-05,
          -8.41288875e-06, 8.89661096e-05, 7.91131461e-05,
          -1.47805986e-04, -5.10472164e-05, 1.59704796e-04,
          1.40355813e-04, 2.17257140e-04, 1.23788748e-04,
          -1.06580432e-04, -2.54171118e-05, -1.13379763e-04,
          6.56437915e-05, 1.81323994e-04, -3.21006410e-05,
          -2.33375704e-05, 7.06706560e-05, 5.93477416e-05,
          1.05448962e-04, 8.14217674e-06, -1.06996973e-04,
          -1.35621696e-04, 9.89831678e-05, 1.02938953e-04,
          -5.59643595e-05, -3.29855538e-05, 2.09211266e-05,
          -2.25134441e-04 ]
      - [ 1.02208367e-04, 8.21271969e-05, -7.08984880e-05,
          -9.57515949e-05, -5.63082831e-05, -1.36175413e-05,
          5.78988738e-06, 5.28191486e-05, -4.94006563e-05,
          1.85814988e-05, -1.35774817e-05, -4.45458536e-05,
          -5.63497415e-05, -5.47085401e-05, -5.42778762e-05,
          -1.27381199e-05, -3.05735266e-05, -7.06195133e-05,
          -9.30243186e-05, -4.08359701e-05, 1.91644745e-06,
          2.20216098e-05, 2.55864925e-05, -2.36558353e-05,
          -3.74871015e-05, -7.52976484e-05, -4.00513491e-05,
          -9.76133015e-06, 1.29914260e-05, 3.58229845e-05,
          4.20403994e-05, 7.31315140e-06, -1.51159963e-06,
          1.22311641e-04, 9.08985967e-05, -1.17500458e-05,
          -2.00150153e-05, 2.01056100e-05, -2.11064707e-05,
          -7.23421690e-05, -1.41870596e-05, 3.55565462e-05,
          7.08017251e-05, 8.40906214e-05, 2.29138968e-05,
          -3.41458654e-05, -2.49265177e-05, -7.00821474e-05,
          -6.04796332e-05, 2.39551082e-06, -7.11619123e-06,
          2.66157604e-05, 3.87520304e-05, 1.28447382e-05,
          -9.02181228e-07, -1.27309631e-05, -6.15723839e-05,
          -2.71317822e-05, 3.99494711e-05, 4.72512183e-05,
          3.38754107e-05, 7.44420322e-06, -7.81383642e-06,
          -1.92913303e-05 ]
      - [ 3.01082648e-04, 4.05642466e-04, 1.76695248e-05,
          -2.14243133e-04, -2.19507070e-04, -2.32263425e-04,
          -1.35357943e-04, 2.51123565e-04, -7.72407075e-05,
          9.81177072e-05, 1.12958012e-04, 1.27489966e-05,
          -2.79519154e-04, -1.97943227e-04, -6.54808304e-04,
          -2.19263296e-04, -1.04777486e-04, -1.39266078e-04,
          -3.40550410e-04, 6.63349492e-05, 4.61078662e-06,
          -1.56472364e-04, 1.83931006e-05, -4.60968695e-05,
          -1.26923842e-04, 1.19102129e-04, 1.44958816e-04,
          -1.88529069e-04, -7.95972301e-06, -1.24793332e-05,
          1.93856176e-05, -3.99435849e-05, 1.00945676e-04,
          9.12673349e-05, 1.35395734e-04, -1.54640613e-04,
          7.30662259e-06, -6.75117553e-05, -4.09721892e-04,
          -3.85740306e-04, -5.71031524e-05, -5.01049581e-05,
          -7.41370677e-05, -3.73121002e-05, 6.43859084e-06,
          -2.64806149e-04, -8.08152322e-07, -3.37983540e-04,
          -1.63140765e-04, 2.60869885e-04, -1.57776842e-04,
          2.87328759e-04, 9.06150817e-05, -2.07184698e-04,
          -1.24778308e-04, -1.15802446e-04, -1.76706177e-04,
          1.50620355e-04, -8.43198177e-06, 1.81742835e-05,
          1.48123610e-04, 6.70224763e-05, -2.80419627e-04,
          1.23174075e-04 ]
      - [ 1.49253901e-04, 1.40415286e-04, -1.24540573e-04,
          -1.34135349e-04, 4.27402256e-06, 1.02104750e-05,
          8.45624963e-05, 7.57174494e-05, -1.11284280e-04,
          -2.02374122e-05, -5.70738630e-05, -8.70895819e-05,
          -4.46457525e-05, -2.64868675e-07, -5.17079534e-05,
          1.33347103e-05, 9.57807697e-06, -3.43488973e-05,
          -1.32406218e-04, -5.86358474e-05, -1.20849763e-04,
          -1.11836096e-04, 4.30990694e-05, 1.59952415e-05,
          -1.31958795e-05, -2.30555306e-04, -8.37819316e-05,
          2.30984624e-05, -4.10808389e-05, -2.62315211e-06,
          1.68130646e-05, 3.06469119e-05, -8.63084206e-05,
          1.45046084e-04, 3.08790914e-05, 2.74722552e-05, 5.28530727e-05,
          -1.61119809e-04, -6.84281767e-05, -1.72798333e-04,
          2.91084452e-05, 8.47536285e-05, 1.65543141e-04, 1.39859825e-04,
          -1.32125817e-04, -1.76672300e-04, -3.18973871e-05,
          -5.89479860e-05, -2.62366011e-05, 1.48433377e-04,
          -2.69668863e-06, 4.65738631e-05, 9.45452703e-05,
          1.28332947e-04, 1.44553647e-04, 7.22568657e-05,
          -6.89180670e-05, -6.51496593e-05, 1.86599078e-04,
          2.22583956e-04, 2.64534501e-05, 3.62832143e-05,
          -5.07419327e-06, -1.30952452e-04 ]
      - [ -9.57179291e-05, -1.68626775e-05, 1.10725698e-04,
          1.59292802e-04, 2.18433663e-04, -4.42078453e-05,
          -6.09284543e-05, -1.22481724e-04, 2.49873905e-04,
          5.41109603e-06, -5.23882591e-05, 1.83726239e-04,
          1.86548394e-04, 5.57713975e-06, -1.47470710e-04,
          -1.15898612e-04, 7.55808214e-05, -1.97215613e-05,
          5.53049431e-05, 1.37563053e-04, -7.21948018e-05,
          -1.20417404e-04, -2.02344672e-04, 3.54923372e-06,
          1.77980342e-04, 2.41144284e-04, 7.08710650e-05,
          -8.50104479e-05, -1.85689845e-04, -1.81420197e-04,
          -1.76529371e-04, 3.34026481e-05, -1.21873090e-04,
          -6.79573277e-05, -1.44138656e-04, 2.13070125e-05,
          -1.61745222e-04, -2.09482503e-04, -1.41468045e-04,
          8.73404715e-05, 6.65907646e-05, -1.15133211e-04,
          -1.81083815e-04, -2.40506066e-04, -1.06574735e-04,
          1.63134770e-04, -2.44995772e-05, 3.42525673e-05,
          7.64591823e-05, 6.99288503e-05, 4.19084718e-05,
          -4.19569951e-05, -3.60589365e-05, -9.27094516e-05,
          -6.90646048e-05, -3.10536489e-05, 1.96729616e-05,
          8.56001352e-05, -4.49413201e-05, -1.32850022e-04,
          -1.54537353e-04, -1.17867094e-04, -1.22131851e-05,
          1.34894799e-04 ]
      - [ -1.70410312e-05, -1.52826891e-04, -8.46866751e-05,
          7.82785792e-05, 2.87700823e-04, 4.49359621e-04, 9.13017066e-05,
          -6.30416733e-04, 2.96764803e-04, 3.66094609e-04,
          8.31749057e-05, 5.39102126e-04, 6.18985971e-04, 7.66458106e-05,
          -2.10936832e-05, -1.04048755e-04, 2.77275171e-06,
          6.34444586e-05, 6.27613917e-05, 6.41593870e-05,
          -1.36705188e-04, -3.80912796e-04, -1.49410655e-04,
          -1.33646645e-05, 2.68831180e-04, -1.67222010e-04,
          1.17835276e-04, 1.97161018e-04, -2.96946586e-04,
          -6.96501927e-04, 7.73830907e-05, 1.97399946e-04,
          1.93732296e-04, -2.78592488e-04, -1.96653535e-04,
          -3.68838155e-05, -2.54894287e-04, -1.59792307e-05,
          7.15039496e-05, 3.83519073e-05, 1.38302785e-04, 6.26264300e-05,
          -1.97434547e-05, -2.37695698e-04, 2.63608730e-04,
          1.01553196e-04, 1.21446348e-04, 4.16452473e-04, 1.13241163e-04,
          5.15924010e-04, 1.17198091e-04, -1.81777050e-05,
          -2.33753253e-05, 1.08064247e-04, 2.64394883e-04,
          2.56389267e-05, -2.02039620e-04, -1.16984345e-04,
          4.86036261e-05, 9.56252334e-05, 1.97987392e-05,
          -2.13872423e-04, -2.80671142e-04, -5.90367708e-04 ]
      - [ 1.11534253e-04, -2.08900354e-04, -3.74624971e-04,
          -1.28903615e-04, -4.06001454e-05, -5.72271092e-05,
          2.38016873e-04, 1.45800310e-04, -1.35341514e-04,
          -3.15624027e-04, -1.40791162e-04, -2.15684297e-04,
          -7.90244667e-05, 2.08655387e-04, 4.35150723e-04,
          8.22974544e-05, 6.62452221e-05, 1.29531254e-04,
          -4.43505451e-05, -7.67034580e-05, -2.59073975e-04,
          -3.48575530e-04, 3.98171433e-05, 1.13824084e-04,
          8.03082075e-05, -3.85058636e-04, -3.11168638e-04,
          3.59301135e-04, -7.42372549e-06, 2.83815352e-05,
          2.28368604e-04, 1.47335624e-04, 2.32204358e-04,
          -6.88250802e-05, -1.05340723e-05, 7.17992443e-05,
          2.40790585e-04, 1.00348880e-04, 1.12828478e-04,
          -1.30917324e-04, 7.84049262e-05, 2.89946503e-04,
          2.41654445e-04, 1.70045369e-05, -2.06658617e-04,
          -1.49726635e-04, 1.76404501e-04, 1.39628028e-04,
          -2.39623827e-04, 4.83065451e-05, -2.16655957e-04,
          2.42678245e-04, -5.33252096e-05, 8.47666888e-05,
          2.44781026e-04, -4.24915606e-06, -1.04494524e-04,
          -1.28287691e-04, 2.00366965e-04, 6.79676596e-04,
          2.02910931e-04, -2.84906764e-05, -9.99815384e-05,
          -2.87847797e-04 ]
   uncompressed_sv_total: 699
   uncompressed_support_vectors:
      - [ 7.06819092e+03, 3.14447998e+03, 1.66814624e+03, 3.18456177e+03,
          3.27343842e+02, 0., 0., 0., 2.26004395e+03, 2.53389063e+03,
          1.01833199e+02, 0., 0., 0., 1.15004349e+02, 1.88520557e+03,
          4.99195459e+03, 2.71543732e+02, 0., 0., 1.58655847e+03,
          1.22900659e+03, 4.18002136e+02, 1.61958044e+03, 5.36115234e+03,
          2.35544995e+03, 0., 0., 3.20281201e+03, 1.32415210e+03,
          3.05651587e+03, 5.34215234e+03, 0., 0., 2.50599289e+01, 0.,
          1.59384351e+03, 3.97882471e+03, 5.16564014e+03, 4.90571582e+03,
          6.24245117e+02, 1.19031506e+03, 1.16070825e+03, 0.,
          1.45086182e+02, 7.94908813e+02, 1.83665979e+03, 3.36591113e+03,
          2.73900903e+03, 1.45178308e+03, 1.94666748e+03, 2.32056519e+03,
          0., 0., 1.44249786e+02, 5.14020410e+03, 4.33623975e+03,
          3.14481836e+03, 2.59381958e+03, 3.22425269e+03, 1.62236243e+03,
          0., 2.58487671e+02, 4.98646631e+03 ]
      - [ 7.76495654e+03, 2.75691675e+03, 1.24582715e+03, 1.49698840e+03,
          0., 0., 0., 0., 6.17291650e+03, 1.11026306e+03, 0., 0., 0., 0.,
          0., 0., 1.50675110e+03, 1.44616730e+02, 0., 0., 0.,
          8.01819153e+02, 1.56721289e+03, 4.09703320e+03, 5.54003601e+02,
          0., 0., 0., 1.58011548e+03, 1.35792871e+03, 3.72420435e+03,
          5.42824072e+03, 1.97759058e+03, 1.44249786e+02, 1.27345178e+03,
          7.25998596e+02, 1.10786450e+03, 6.42091919e+02, 2.43070801e+03,
          6.39413428e+03, 1.43169238e+03, 4.11025208e+02, 1.48265918e+03,
          5.42722778e+02, 0., 4.62622986e+02, 3.05617401e+02,
          4.23123535e+03, 2.70912305e+03, 2.99063281e+03, 5.38858032e+02,
          1.78660156e+03, 2.43310509e+01, 0., 0., 0., 5.16361084e+03,
          5.59768213e+03, 1.93402588e+03, 1.64017505e+03, 0., 0., 0., 0. ]
      - [ 3.60861938e+03, 6.53227832e+03, 4.82964209e+03, 0., 0., 0., 0.,
          0., 2.66060498e+03, 3.66931836e+03, 1.55312329e+03, 0., 0., 0.,
          0., 0., 5.38817969e+03, 1.62825058e+02, 0., 0., 2.36331738e+03,
          2.25988867e+03, 1.88317651e+03, 1.80445215e+03, 3.67905884e+03,
          1.82537674e+02, 0., 4.23001190e+02, 3.22789136e+03,
          4.34175879e+03, 2.86221606e+03, 2.85642212e+03, 1.25109717e+03,
          1.19910486e+03, 6.85215271e+02, 5.70568896e+03, 2.50604663e+03,
          9.54153381e+02, 2.68029834e+03, 4.61314697e+03, 3.38810254e+03,
          1.76131177e+03, 1.64791333e+03, 2.00422473e+03, 8.27484192e+02,
          1.27585364e+03, 2.89120972e+03, 1.59841968e+03, 9.84285095e+02,
          1.26227832e+03, 9.83574036e+02, 2.20752075e+03, 0., 0.,
          2.96984844e+01, 3.46725513e+03, 3.44799194e+03, 3.90662305e+03,
          2.73797876e+03, 3.44476782e+03, 0., 0., 8.34385986e+01,
          5.44989014e+03 ]
      - [ 4.84144971e+03, 3.11082813e+03, 2.63859204e+03, 3.90689429e+03,
          1.68773828e+03, 1.72661514e+02, 0., 0., 3.49809204e+03,
          2.47905078e+03, 6.88145325e+02, 1.88035083e+03, 1.12313965e+03,
          1.97903442e+03, 2.64007568e+02, 8.76009155e+02, 1.18406360e+03,
          1.78600113e+02, 0., 4.81663780e+01, 2.08329346e+03,
          2.87920654e+03, 2.19267749e+03, 4.68692529e+03, 0., 0., 0., 0.,
          3.48591797e+03, 4.05427368e+03, 3.72900513e+03, 4.43977832e+03,
          0., 0., 0., 3.72163647e+03, 2.25420313e+03, 2.44942822e+03,
          3.90509497e+03, 5.40012939e+03, 0., 1.34605322e+03,
          9.29688110e+02, 1.43517627e+03, 1.48890417e+03, 2.45579712e+03,
          1.64547668e+03, 3.96049634e+03, 5.60666455e+03, 1.86348401e+03,
          2.49352783e+03, 1.52495203e+03, 3.18807813e+03, 0., 0.,
          1.45301917e+03, 5.21618750e+03, 3.70502441e+03, 3.38001343e+03,
          5.33941650e+03, 9.37000549e+02, 0., 0., 0. ]
      - [ 1.13357834e+02, 3.99067383e+03, 4.63474609e+03, 1.34449609e+03,
          1.88103186e+03, 2.30217285e+01, 0., 0., 0., 1.16932642e+03,
          3.22343115e+03, 0., 9.62196655e+02, 1.37718408e+03,
          6.87002197e+02, 0., 1.53777271e+03, 1.92346130e+02,
          3.58675323e+02, 2.50681494e+03, 8.51673645e+02, 1.28802075e+03,
          1.98312402e+03, 1.51529053e+03, 1.47764526e+03, 2.14960464e+02,
          0., 1.72276904e+03, 4.38979297e+03, 1.90960327e+03,
          2.19330859e+03, 3.05510229e+03, 0., 7.78973694e+01, 0.,
          3.44839160e+03, 3.78836157e+03, 3.23472168e+03, 1.73450903e+03,
          2.51618799e+03, 8.05111572e+02, 1.03713513e+03, 1.67627930e+03,
          7.81600220e+02, 2.03990540e+03, 2.62180249e+03, 7.95486938e+02,
          1.57096118e+03, 6.52223877e+02, 1.20414160e+03, 2.35228076e+03,
          4.77553613e+03, 9.63327560e+01, 0., 0., 0., 1.54905750e+03,
          2.03023596e+03, 4.78838477e+03, 5.49792285e+03, 0., 0., 0., 0. ]
      - [ 6.66851123e+03, 2.28875464e+03, 6.52386865e+03, 5.39117871e+03,
          0., 0., 0., 1.12445541e+02, 3.94021631e+03, 1.53630042e+03,
          2.22036041e+02, 1.22760449e+03, 1.70751282e+02, 4.52411316e+02,
          7.18689087e+02, 9.12641479e+02, 2.00976453e+03, 0., 0., 0., 0.,
          4.80754150e+03, 1.40432861e+03, 3.01292773e+03, 0., 0.,
          9.98077393e+02, 4.67600250e+02, 4.31953516e+03, 5.21491113e+03,
          7.52063477e+03, 1.92583008e+03, 1.40547803e+03, 1.71037244e+03,
          1.65025220e+03, 3.76201147e+03, 2.66114478e+03, 3.39379639e+03,
          5.03403613e+03, 2.97950073e+03, 3.47844214e+03, 5.69385742e+02,
          1.79804187e+03, 2.44280737e+03, 3.98063159e+03, 1.97246048e+02,
          0., 0., 5.28378027e+03, 1.40667407e+03, 1.58664941e+03,
          2.03296094e+03, 2.06903638e+03, 2.03229578e+03, 1.55563492e+02,
          4.06657104e+03, 6.54786230e+03, 3.86539990e+03, 2.41500244e+03,
          4.04245630e+03, 5.98321826e+03, 0., 0., 2.02505811e+03 ]
      - [ 0., 2.57197949e+03, 7.75741602e+03, 0., 0., 0., 0., 0., 0., 0.,
          7.77529419e+02, 9.47549500e+02, 3.01599060e+02, 0., 0., 0.,
          3.42890112e+03, 5.44957764e+03, 9.30707275e+02, 6.19995654e+03,
          6.33985779e+02, 8.61636841e+02, 6.49177368e+02, 0.,
          1.26197412e+03, 2.22757007e+03, 6.07776807e+03, 7.89108350e+03,
          1.20738208e+03, 1.41113464e+03, 1.35103259e+03, 2.11306836e+03,
          1.64128638e+03, 2.47609839e+03, 1.12531182e+04, 1.95519775e+03,
          2.90496124e+02, 9.24887451e+02, 1.55342163e+03, 7.85684387e+02,
          6.46912793e+03, 5.02331006e+03, 6.79945264e+03, 6.52302063e+02,
          1.08509912e+03, 8.09860962e+02, 0., 9.89485229e+02, 0.,
          2.74296289e+03, 5.23325830e+03, 0., 0., 0., 0., 1.64438431e+02,
          1.39459839e+03, 4.64239795e+03, 7.52806738e+03, 5.01654785e+02,
          0., 0., 0., 0. ]
      - [ 4.98567969e+03, 5.09264893e+03, 1.84739258e+03, 3.53155615e+03,
          0., 0., 0., 0., 2.45579614e+03, 2.91218237e+03, 3.45845044e+03,
          0., 0., 0., 0., 0., 4.92394531e+03, 9.92975311e+01, 0.,
          8.14120422e+02, 1.59911108e+03, 1.18260559e+03, 5.48295532e+02,
          1.30132959e+03, 5.52894482e+03, 9.33380966e+01, 0., 0.,
          3.63635522e+03, 1.83391028e+03, 2.11621875e+03, 2.55125244e+03,
          0., 0., 0., 1.50890381e+03, 1.54197498e+03, 1.14024915e+03,
          5.23892969e+03, 3.84352368e+03, 0., 0., 1.49412186e+02,
          1.64629932e+03, 8.11454224e+02, 7.71524414e+02, 2.81416968e+03,
          2.07450854e+03, 1.31681018e+03, 2.17181885e+03, 1.65994409e+03,
          3.11270581e+03, 0., 0., 2.23516434e+02, 3.64176733e+03,
          3.09059790e+03, 2.61457275e+03, 2.08766162e+03, 4.37676270e+03,
          6.38078369e+02, 0., 0., 3.68829492e+03 ]
      - [ 0., 3.79318726e+03, 8.52869141e+03, 0., 0., 0., 0., 0., 0.,
          1.63219409e+03, 2.66856812e+03, 0., 0., 0., 0., 0.,
          2.96175586e+03, 5.73537646e+03, 2.55741113e+03, 0., 0., 0., 0.,
          7.10163208e+02, 3.44864331e+03, 4.34249561e+03, 3.79091431e+03,
          3.65306934e+03, 1.03157373e+03, 1.23988379e+03, 1.18242749e+03,
          3.02843433e+03, 1.39812988e+03, 3.80881042e+02, 1.40796045e+03,
          6.21268750e+03, 1.97314624e+03, 2.59032764e+03, 1.56581689e+03,
          2.27499072e+03, 3.98293506e+03, 4.48274261e+02, 9.03382568e+02,
          4.70355762e+03, 1.87661060e+03, 2.00809314e+03, 0.,
          1.39159570e+03, 1.47103052e+03, 3.27700439e+03, 4.71063818e+03,
          2.84885956e+02, 0., 0., 0., 0., 2.46015088e+03, 5.88443750e+03,
          5.13587695e+03, 1.67122632e+03, 0., 0., 7.02139587e+01, 0. ]
      - [ 8.11428284e+02, 4.48289209e+03, 1.97077148e+03, 0., 0., 0., 0.,
          0., 0., 0., 0., 0., 0., 1.05678757e+02, 6.08111839e+01,
          2.56067822e+03, 1.44271851e+03, 1.19637871e+04, 3.21681860e+03,
          7.92849304e+02, 6.32074280e+02, 5.88980469e+02, 4.15018066e+02,
          0., 9.26459534e+02, 6.86689111e+03, 2.05049854e+03,
          4.89830469e+03, 3.31272314e+03, 6.25307922e+02, 1.11013123e+03,
          5.12317322e+02, 1.42722595e+03, 1.65783618e+03, 3.18658691e+03,
          4.15014795e+03, 1.95361304e+03, 1.33386194e+03, 2.62515283e+03,
          2.92495923e+03, 2.62917432e+03, 5.09050293e+03, 3.65583862e+03,
          8.73171448e+02, 0., 6.20003235e+02, 3.07719482e+02,
          1.12307703e+03, 3.14155957e+03, 1.67026440e+03, 3.53267651e+03,
          0., 0., 0., 0., 0., 3.51170288e+03, 7.97119775e+03,
          5.07599121e+03, 0., 0., 1.01212646e+02, 0., 0. ]
      - [ 5.25041309e+03, 5.33375098e+03, 5.70201721e+02, 0., 0., 0., 0.,
          0., 2.64582544e+03, 1.89792773e+03, 1.36528381e+02, 0., 0., 0.,
          0., 0., 4.38852295e+03, 4.42845642e+02, 8.16853699e+02,
          7.46482422e+02, 7.37460510e+02, 0., 1.18042383e+03,
          1.81257886e+03, 2.68371313e+03, 3.88828308e+02, 5.55022522e+02,
          1.18191138e+03, 1.68216724e+03, 8.95877319e+02, 2.21012964e+03,
          2.70075659e+03, 2.62849219e+03, 0., 0., 1.59944141e+03,
          1.05621985e+03, 2.62235352e+03, 3.19217798e+03, 3.00145239e+03,
          2.15051563e+03, 2.28062524e+03, 4.63227783e+02, 5.45534607e+02,
          8.84217224e+02, 0., 2.00760278e+03, 1.26372559e+03,
          1.28946716e+03, 4.68594873e+03, 8.61767944e+02, 0., 0., 0.,
          5.73061943e+01, 6.55133591e+01, 3.05984692e+03, 6.47906689e+03,
          2.29711182e+03, 0., 0., 0., 1.61245155e+01, 0. ]
      - [ 1.73078018e+02, 1.31994785e+04, 3.29656421e+03, 0., 0., 0., 0.,
          0., 0., 2.52140479e+03, 1.47705225e+03, 2.02484570e+01, 0., 0.,
          0., 0., 5.74737646e+03, 2.94196069e+03, 2.16755591e+03,
          1.72052307e+02, 9.61621643e+02, 1.32532617e+03, 3.15865082e+02,
          1.19627515e+03, 1.93401050e+03, 2.09540820e+03, 5.06742798e+02,
          5.77928809e+03, 4.05011719e+03, 1.72913538e+03, 2.15053345e+03,
          3.34251050e+03, 2.83761279e+03, 4.31844879e+02, 1.24713965e+03,
          5.11985156e+03, 2.30646094e+03, 1.80691772e+03, 5.26141260e+03,
          1.49169836e+03, 5.90331445e+03, 2.73204443e+03, 2.06434814e+03,
          1.33926660e+03, 4.72451050e+02, 9.52463196e+02, 5.61556763e+02,
          4.37104126e+02, 7.36658691e+02, 2.79435938e+03, 2.65700122e+03,
          0., 0., 0., 0., 0., 5.85035400e+03, 5.35706787e+03,
          5.87351904e+03, 1.66630896e+03, 0., 0., 0., 0. ]
      - [ 2.08488354e+03, 6.18938379e+03, 5.98198047e+03, 0., 0., 0., 0.,
          0., 0., 3.36630341e+02, 1.22203882e+03, 3.16227770e+00, 0., 0.,
          0., 0., 7.96569824e+03, 4.02322144e+02, 1.23765427e+02,
          1.38236304e+03, 6.50347778e+02, 1.07025589e+02, 9.73495483e+02,
          9.13637878e+02, 1.30383008e+03, 1.95154028e+03, 3.00696350e+02,
          3.87530713e+03, 1.96615503e+03, 3.82617432e+03, 2.84131323e+03,
          2.03766077e+03, 1.38935461e+03, 3.80437866e+02, 4.59109668e+03,
          4.29087500e+03, 1.94460425e+03, 9.55447205e+02, 4.08213892e+03,
          6.47256653e+02, 8.47845801e+03, 1.50034131e+03, 3.53083228e+03,
          1.78488098e+02, 5.65862183e+02, 3.30223206e+02, 1.00784100e+03,
          5.81627014e+02, 0., 3.37877197e+03, 2.71049683e+03, 0., 0., 0.,
          0., 0., 5.70772461e+03, 8.67133496e+03, 1.86987451e+03,
          2.79244824e+03, 0., 0., 0., 0. ]
      - [ 9.56837463e+02, 6.87967773e+03, 4.16738477e+03, 9.88032410e+02,
          0., 0., 0., 0., 0., 1.06712207e+03, 1.63222717e+03, 0., 0., 0.,
          9.06724548e+02, 0., 4.25201904e+03, 4.02754150e+03,
          1.72602966e+03, 2.20567407e+03, 5.22524658e+02, 1.08116541e+03,
          7.02249268e+02, 7.40124329e+02, 2.61337695e+03, 4.21872559e+03,
          7.64398438e+02, 3.75593823e+03, 3.75561597e+03, 2.32309595e+03,
          1.80574023e+03, 3.50971436e+03, 6.89272583e+02, 1.03664832e+03,
          3.68317780e+02, 1.88510608e+03, 5.70133887e+03, 2.90360181e+03,
          1.84221460e+03, 3.51858057e+03, 5.94052246e+03, 0., 0.,
          5.12445107e+01, 3.46242090e+03, 1.52200610e+03, 1.60381274e+03,
          7.20139160e+02, 3.11073022e+03, 1.89823682e+03, 3.02466919e+03,
          0., 0., 0., 0., 0., 5.41953467e+03, 5.43616162e+03,
          6.29091455e+03, 0., 2.31365524e+02, 0., 0., 5.13149109e+02 ]
      - [ 0., 9.61051855e+03, 4.69125146e+03, 0., 0., 0., 0., 0., 0.,
          4.14983398e+03, 0., 0., 0., 0., 0., 0., 2.14314038e+03,
          3.19549512e+03, 2.24140527e+03, 1.55202991e+03, 1.15830139e+03,
          2.98435913e+02, 0., 4.97322845e+02, 1.94665845e+03,
          3.40465820e+03, 2.13446289e+03, 4.04283887e+03, 1.98711450e+03,
          2.75825903e+03, 1.91394348e+03, 4.75204395e+03, 7.46257324e+02,
          7.27800537e+03, 3.22105762e+03, 2.28625098e+03, 2.32840161e+03,
          2.22437720e+03, 1.25386853e+03, 3.19955444e+03, 3.74315454e+03,
          9.87122949e+03, 2.28657739e+03, 0., 1.30506699e+02, 0., 0.,
          2.57783838e+03, 0., 6.82809937e+02, 5.98562109e+03, 0., 0., 0.,
          0., 0., 0., 8.25397266e+03, 7.32879639e+03, 0., 0., 0., 0., 0. ]
      - [ 0., 1.20392754e+04, 2.73367603e+03, 0., 0., 0., 0., 0., 0.,
          1.66643326e+02, 8.45928589e+02, 0., 0., 0., 0., 0.,
          5.03889941e+03, 1.35228906e+03, 1.27424927e+03, 5.83744873e+02,
          4.92337402e+02, 1.10413525e+03, 5.88003418e+02, 1.61009323e+02,
          1.40587451e+03, 4.12479004e+03, 0., 4.06967725e+03,
          3.25495850e+03, 1.47362378e+03, 2.48970801e+03, 5.87595508e+03,
          7.96153259e+02, 1.13137085e+02, 5.20763184e+03, 1.75527698e+03,
          2.03975317e+03, 1.09593176e+03, 3.05916309e+03, 5.17446289e+03,
          3.59868335e+03, 4.11512744e+03, 6.86640137e+02, 7.94542236e+02,
          3.76279144e+02, 4.76844696e+02, 7.38530701e+02, 1.98816498e+02,
          1.56185352e+03, 2.67157129e+03, 1.79408752e+03, 0., 0., 0., 0.,
          1.96238623e+03, 3.51546240e+03, 6.32264990e+03, 6.42629639e+03,
          2.78926506e+01, 0., 0., 0., 0. ]
      - [ 4.93641571e+02, 7.92784619e+03, 6.51080322e+03, 0., 0., 0., 0.,
          0., 0., 5.23259010e+01, 4.48682648e+02, 0., 0., 0., 0., 0.,
          5.98075488e+03, 2.74116760e+02, 0., 9.50448303e+02,
          2.42915619e+02, 1.06816455e+03, 0., 2.51288681e+02,
          1.02709985e+03, 2.78286719e+03, 10., 2.02636267e+03,
          4.04803662e+03, 9.28631592e+02, 7.06438867e+03, 1.99027258e+03,
          4., 2.32685620e+03, 2.30702954e+03, 1.22311401e+03,
          9.22425842e+02, 2.77695508e+03, 3.88213843e+03, 5.54210498e+03,
          4.35190771e+03, 0., 0., 5.78738892e+02, 1.30506699e+02, 0.,
          4.25925964e+02, 1.31217377e+02, 1.00744958e+03, 1.57751465e+03,
          7.87842651e+02, 0., 0., 0., 0., 0., 7.60965430e+03,
          4.82830566e+03, 5.80009961e+03, 1.26569946e+03, 5.29635742e+02,
          0., 0., 1.15892139e+03 ]
      - [ 0., 8.86538379e+03, 5.02231201e+03, 0., 0., 0., 0., 0., 0.,
          9.59625320e+01, 0., 0., 0., 0., 0., 0., 7.95259473e+03,
          5.93989624e+02, 0., 1.46298584e+02, 4.10825684e+02, 0.,
          2.14240265e+02, 6.50076904e+01, 3.18863617e+02, 2.62126770e+02,
          7.28380005e+02, 3.98275952e+03, 2.31305859e+03, 2.31301172e+03,
          4.79701563e+03, 1.51858154e+03, 7.16227770e+00, 1.91213538e+03,
          3.67621436e+03, 2.06343066e+03, 0., 1.01878619e+03,
          4.70056006e+03, 6.29620361e+03, 3.86001978e+03, 4.07946075e+02,
          1.23555649e+02, 1.79226120e+02, 3.77828003e+02, 1.33843185e+02,
          3.66398682e+02, 0., 4.31223846e+02, 2.79517426e+02,
          8.25069092e+02, 3.97280762e+02, 1.85153992e+02, 0., 0., 0.,
          5.41515381e+03, 5.82881689e+03, 6.81774561e+03, 6.40610413e+02,
          0., 0., 0., 2.06968597e+02 ]
      - [ 0., 3.31456201e+03, 9.08124609e+03, 0., 0., 0., 0., 0., 0.,
          6.88767014e+01, 2.97595630e+03, 0., 0., 0., 0., 0.,
          1.78712646e+03, 5.42088525e+03, 3.48610938e+03, 2.31393140e+03,
          1.21664160e+03, 0., 5.53759888e+02, 7.12853394e+02,
          6.55133545e+02, 2.66636841e+03, 3.69052734e+03, 6.32249268e+03,
          1.91522449e+03, 3.35868530e+03, 2.15269434e+03, 8.14002441e+02,
          1.41809705e+03, 1.75362488e+02, 2.64857007e+03, 9.58544727e+03,
          68., 1.64841248e+03, 1.12893848e+03, 1.88049194e+03,
          1.73252368e+03, 7.48439160e+03, 2.38718338e+02, 1.79407837e+03,
          7.79119995e+02, 3.30605499e+02, 7.48346985e+02, 1.68576385e+02,
          0., 3.56407520e+03, 6.88584045e+02, 0., 0., 0., 0., 0., 0.,
          8.29332813e+03, 5.34296045e+03, 0., 0., 0., 0., 0. ]
      - [ 0., 2.60507129e+03, 1.03239385e+04, 0., 0., 0., 0., 0., 20.,
          0., 2.02294849e+03, 0., 0., 0., 0., 0., 1.26445398e+03,
          7.69298926e+03, 0., 5.14902393e+03, 1.58876392e+03, 0.,
          5.62657776e+02, 8.08640625e+02, 7.19970276e+02, 5.67640918e+03,
          3.96118530e+03, 3.96989600e+03, 5.79014111e+03, 1.99379016e+03,
          1.99108154e+03, 2.29308447e+03, 1.63422925e+03, 1.48492432e+02,
          7.64964893e+03, 2.91104932e+03, 1.94739038e+03, 2.02984021e+03,
          1.41880334e+03, 1.94625818e+03, 4.64503125e+03, 3.84399292e+03,
          4.15962695e+03, 9.33648499e+02, 0., 8.78018555e+02,
          6.84031982e+02, 1.26986438e+03, 8.02706665e+02, 4.11252734e+03,
          2.37327905e+03, 1.20561523e+03, 0., 0., 0., 0., 3.57698755e+03,
          5.39184814e+03, 8.10431592e+03, 3.84707680e+01, 0., 0., 0., 0. ]
      - [ 6.95460010e+03, 2.09469727e+03, 1.43173706e+03, 1.25504663e+03,
          3.99230762e+03, 0., 5.06750031e+02, 4.32677344e+03,
          2.56347412e+03, 5.22472961e+02, 9.03548584e+02, 5.25709045e+02,
          1.98453027e+03, 1.54382645e+02, 2.64196899e+02, 3.51041968e+03,
          0., 0., 0., 0., 0., 1.55974350e+02, 2.66239209e+03,
          5.16407959e+03, 5.53172684e+01, 0., 0., 0., 0., 3.46594727e+03,
          4.84370703e+03, 7.75494727e+03, 0., 0., 0., 0., 1.75500818e+03,
          2.98742798e+03, 8.13760986e+03, 3.33903882e+03, 0., 0., 0.,
          2.84604988e+01, 5.68858490e+01, 2.16780811e+03, 4.86884082e+03,
          1.80551978e+03, 3.33105127e+03, 8.85591125e+02, 1.08030249e+03,
          8.29868713e+02, 2.59513135e+03, 9.68132202e+02, 8.05893494e+02,
          5.13039209e+03, 2.15058911e+03, 4.91447021e+03, 2.40306030e+03,
          1.88574170e+03, 3.77594604e+03, 0., 6.50538254e+01,
          3.37042188e+03 ]
      - [ 2.04680701e+03, 3.06047998e+03, 1.01950254e+04, 0., 0., 0.,
          4.47213602e+00, 0., 0., 5.88751709e+02, 9.96206055e+02, 0., 0.,
          0., 0., 2.03825623e+03, 2.49524536e+03, 4.00802075e+03,
          1.83983688e+02, 1.78279272e+03, 3.14995703e+03, 5.25101868e+02,
          8.19699951e+02, 9.83484131e+02, 1.21433105e+02, 3.50372925e+03,
          3.58603345e+03, 4.08727612e+03, 3.45693799e+03, 4.22091797e+03,
          3.42339966e+03, 3.62529248e+03, 2., 2.96984844e+01,
          5.56663391e+02, 7.84787256e+03, 2.11040308e+03, 3.06118237e+03,
          3.69692041e+03, 4.34763965e+03, 4.90789154e+02, 3.70744092e+03,
          7.76435425e+02, 1.03332130e+02, 9.75007813e+02, 9.48815002e+01,
          1.09488269e+03, 5.02195168e+01, 1.75352881e+03, 3.28905664e+03,
          1.65719043e+03, 0., 0., 0., 0., 0., 4.60929883e+03,
          6.07616211e+03, 9.34599023e+03, 0., 7.73692444e+02, 0.,
          1.64261841e+03, 2.54066376e+02 ]
      - [ 0., 7.73325830e+03, 6.96222949e+03, 8.76915039e+02, 0., 0.,
          4.02243690e+01, 0., 0., 3.06380884e+03, 1.87924719e+03, 0., 0.,
          0., 0., 0., 6.30146875e+03, 1.03010034e+03, 9.36728394e+02,
          2.41560645e+03, 1.70649207e+03, 5.17571228e+02, 1.41792834e+03,
          4.86181030e+02, 1.22933167e+03, 3.75073999e+03, 8.84715393e+02,
          3.54817554e+03, 6.06162158e+03, 1.84010742e+03, 2.17884985e+03,
          2.89962598e+03, 2.41331665e+03, 1.54567627e+03, 4.69943213e+03,
          2.59856152e+03, 4.41181152e+03, 4.42211133e+03, 1.76668579e+03,
          9.00430664e+02, 3.01082129e+03, 5.28001367e+03, 2.02725684e+03,
          2.69378320e+03, 7.19506714e+02, 1.02375043e+03, 6.26426392e+02,
          5.85120605e+02, 2.21394458e+03, 2.22032397e+03, 5.32092224e+02,
          0., 1.06736963e+03, 5.13351746e+02, 2.82035858e+02,
          5.30571350e+02, 1.94336060e+03, 6.45674561e+03, 5.93866113e+03,
          2.49262573e+03, 0., 0., 0., 4.43355377e+02 ]
      - [ 4.07879077e+03, 7.88802100e+03, 9.62496216e+02, 0., 0., 0., 0.,
          0., 0., 2.67525696e+02, 0., 0., 0., 0., 0., 1.57507397e+03,
          1.89404053e+03, 2.06308789e+03, 0., 0., 3.74849945e+02,
          2.68004974e+02, 0., 8.64979919e+02, 9.56734070e+02, 0.,
          2.33238068e+01, 1.96815393e+03, 1.72925513e+03, 9.15376892e+02,
          1.89456726e+03, 8.01145850e+03, 1.20597729e+03, 1.49806549e+02,
          6.39190125e+02, 1.27026160e+03, 1.24040320e+03, 1.45558398e+03,
          2.49374756e+03, 7.66750146e+03, 3.88735596e+03, 0., 0.,
          8.22800064e+01, 4.67126282e+02, 0., 2.01935638e+02, 0.,
          6.39481934e+02, 8.78077087e+02, 1.61895035e+02, 0., 0., 0., 0.,
          3.87328027e+03, 2.78035303e+03, 7.52341309e+03, 1.68660010e+03,
          8.87684631e+02, 0., 0., 2.69432739e+02, 3.17455505e+02 ]
      - [ 0., 1.36242371e+03, 1.47043008e+04, 0., 0., 0., 0., 0., 0., 0.,
          4.08014844e+03, 0., 0., 0., 0., 0., 2.02223889e+03,
          2.02367163e+03, 1.60968542e+03, 2.85651807e+03, 2.15691846e+03,
          9.05414856e+02, 5.63810242e+02, 1.51413550e+03, 1.85445511e+02,
          2.64378101e+03, 2.97778271e+03, 2.49954053e+03, 6.59849609e+03,
          3.24892993e+03, 4.15132324e+03, 2.92557837e+03, 1.61718372e+03,
          2.74164673e+03, 6.00812549e+03, 2.03608191e+03, 4.30801514e+03,
          1.33465186e+03, 9.28578674e+02, 3.24107275e+03, 4.58428760e+03,
          3.82662524e+03, 4.85370508e+03, 7.24016602e+02, 0.,
          3.08058411e+02, 7.01462769e+02, 8.70087402e+02, 0.,
          3.69054468e+03, 3.28426538e+03, 0., 0., 0., 0., 0.,
          2.01504834e+03, 5.29232959e+03, 9.63898047e+03, 3.01771454e+02,
          0., 0., 0., 0. ]
      - [ 5.25606641e+03, 5.99071045e+03, 1.64409448e+03, 1.55547290e+03,
          0., 0., 0., 0., 0., 5.34248779e+03, 1.44787512e+03, 0., 0., 0.,
          0., 3.31834290e+02, 2.34142627e+03, 3.63393311e+03,
          2.26943823e+03, 2.92099780e+03, 3.74111377e+03, 1.74198291e+03,
          1.58512231e+03, 0., 7.37794006e+02, 2.79541797e+03,
          6.51905212e+02, 5.68305566e+03, 5.66027588e+03, 1.84550916e+03,
          2.89126563e+03, 1.33618884e+03, 1.99271484e+03, 2.40256274e+03,
          0., 3.96120093e+03, 5.50217383e+03, 1.87501819e+03,
          5.12254688e+03, 3.55808276e+03, 2.18624585e+03, 2.26334180e+03,
          4.39317627e+02, 1.55559399e+03, 1.95308960e+03, 2.38189722e+03,
          1.84006885e+03, 4.55510681e+02, 3.41096680e+03, 2.48566797e+03,
          3.02093262e+03, 1.12099136e+02, 0., 0., 0., 0., 5.99082642e+02,
          1.26794209e+04, 3.00001050e+03, 1.97430786e+03, 0., 0., 0., 0. ]
      - [ 5.54835449e+03, 4.97039111e+03, 3.40964844e+03, 0., 0., 0., 0.,
          8.80908585e+01, 0., 3.43562305e+03, 0., 0., 0., 0., 0., 0.,
          3.74114380e+03, 0., 0., 0., 1.17080640e+03, 6.52236145e+02,
          6.19603333e+02, 1.58408826e+03, 2.73518726e+03, 4.24264050e+00,
          0., 0., 2.03655420e+03, 2.70064307e+03, 6.12669434e+03,
          3.41909106e+03, 2.72940186e+03, 2.96984844e+01, 3.58921313e+03,
          2.63255591e+03, 8.87080078e+02, 1.48139258e+03, 9.54812988e+02,
          5.67420996e+03, 5.91927246e+03, 3.08739063e+03, 0., 0.,
          1.06846521e+03, 7.66984497e+02, 7.26059265e+02, 1.60030627e+03,
          2.32176929e+03, 2.93599219e+03, 7.58225525e+02, 2.39754044e+02,
          1.20830460e+02, 0., 0., 0., 6.59694189e+03, 6.28132275e+03,
          2.00299670e+03, 1.70908521e+03, 0., 0., 0., 0. ]
      - [ 1.01979297e+04, 1.68978174e+03, 9.18686890e+02, 1.72820081e+03,
          1.32135498e+03, 0., 2.50415649e+02, 0., 4.82477100e+03,
          3.84661816e+03, 0., 0., 0., 0., 0., 0., 3.22664160e+03,
          4.80832596e+01, 0., 0., 7.88737000e+02, 9.47510315e+02,
          1.10180115e+03, 4.07910547e+03, 2.44697925e+03, 0., 0., 0.,
          1.36617236e+03, 2.93931641e+03, 3.34373633e+03, 3.82786621e+03,
          0., 0., 0., 0., 1.45208191e+03, 4.54580713e+03, 6.31647266e+03,
          2.26132666e+03, 0., 3.89047882e+02, 0., 4.55086792e+02,
          6.89585388e+02, 1.37700452e+03, 4.80257666e+03, 1.97507532e+03,
          3.00096582e+03, 1.28658191e+03, 8.61167786e+02, 3.42552710e+03,
          1.47261963e+03, 0., 0., 2.89759131e+03, 2.95162720e+03,
          2.66150537e+03, 4.67777539e+03, 2.79741235e+03, 1.47865540e+03,
          0., 0., 2.37886011e+03 ]
      - [ 3.46001611e+03, 4.10400732e+03, 2.67282080e+03, 3.61033887e+03,
          3.51483496e+03, 1.45230850e+02, 0., 0., 1.69241724e+03,
          2.31284375e+03, 1.30679321e+03, 1.77478784e+03, 1.74338611e+03,
          1.51669824e+03, 1.16437378e+03, 0., 0., 6.98140411e+01, 0.,
          8.59000549e+02, 4.39067236e+03, 1.34117456e+03, 1.79925830e+03,
          1.71823413e+03, 0., 0., 0., 0., 7.04881641e+03, 2.73147241e+03,
          3.90069287e+03, 3.53578418e+03, 0., 0., 1.41421356e+02,
          1.90168350e+02, 5.11056396e+03, 8.76884082e+03, 2.39453320e+03,
          6.85078125e+02, 0., 0., 0., 1.60853973e+02, 5.31767285e+03,
          3.19701440e+03, 0., 0., 0., 7.78742554e+02, 1.56695630e+03,
          7.18604443e+03, 0., 0., 0., 1.86875513e+03, 1.76621802e+03,
          1.80623987e+03, 6.14055078e+03, 7.10851660e+03, 0.,
          4.98168640e+02, 6.68359558e+02, 1.03929895e+03 ]
      - [ 0., 6.96715430e+03, 1.03545674e+04, 0., 0., 0., 0., 0., 0.,
          2.59176880e+03, 3.08920215e+03, 0., 0., 0., 0., 0.,
          3.60046338e+03, 5.37112671e+02, 0., 8.51005310e+02,
          3.96349390e+03, 1.33043188e+03, 1.07296143e+03, 6.60012146e+02,
          1.37114343e+03, 8.32026367e+02, 2.02601428e+03, 4.08313428e+03,
          2.05371753e+03, 5.12289648e+03, 4.14405664e+03, 3.57110596e+03,
          3.68612256e+03, 8.62670288e+01, 2.05649463e+03, 5.54027295e+03,
          3.56998682e+03, 1.52822705e+03, 4.22863574e+03, 7.14188477e+03,
          0., 1.27320984e+03, 6.03707422e+03, 1.72928979e+03, 0.,
          2.15976758e+03, 9.19889099e+02, 1.72291846e+03, 2.13002350e+02,
          1.80164856e+03, 5.99395801e+03, 3.88741797e+03, 0., 0., 0., 0.,
          3.69470874e+03, 2.81083154e+03, 9.53459473e+03, 4.71193555e+03,
          0., 0., 0., 0. ]
      - [ 0., 1.16266006e+04, 1.14188220e+03, 0., 0., 0., 0., 0.,
          2.91204395e+01, 1.86932031e+03, 0., 0., 0., 0., 0., 0.,
          3.46020410e+03, 3.17112183e+03, 3.19126923e+02, 0.,
          4.60594666e+02, 2.72154388e+02, 7.65745789e+02, 1.88325415e+03,
          2.58295532e+03, 0., 1.20874194e+03, 9.07926208e+02,
          3.73117188e+03, 2.33921411e+03, 5.77518018e+03, 2.03711157e+03,
          1.00852991e+03, 4.60221338e+03, 6.01476904e+03, 0.,
          1.96407397e+03, 3.44260840e+03, 3.69264258e+03, 3.33402319e+03,
          3.12880200e+03, 7.03562793e+03, 2.16330127e+03, 5.08702271e+02,
          6.58099854e+02, 6.90050781e+02, 1.03872461e+03, 6.01752441e+02,
          0., 4.54261621e+03, 1.82022339e+03, 8.41153931e+02,
          4.47213593e+01, 3.91555878e+02, 0., 0., 4.27351367e+03,
          7.13220947e+03, 6.98626611e+03, 0., 0., 0., 0., 0. ]
      - [ 0., 5.22212207e+03, 6.49153564e+03, 1.92729773e+03,
          1.55724121e+02, 0., 0., 0., 0., 0., 2.29693262e+03, 0., 0., 0.,
          0., 0., 4.48630273e+03, 4.34325684e+03, 0., 4.80473975e+03,
          9.69070923e+02, 1.85348328e+02, 7.18442749e+02, 8.59664795e+02,
          1.21956421e+03, 2.75372070e+03, 2.71297070e+03, 4.05489917e+03,
          6.52475098e+03, 9.59075623e+02, 5.47095898e+03, 0.,
          4.02902734e+03, 3.23587085e+03, 1.55793909e+03, 2.65622168e+03,
          3.11496240e+03, 1.61454980e+03, 2.94121411e+03, 3.76678027e+03,
          7.72845068e+03, 2.54594360e+03, 2.22648022e+03, 0., 0.,
          9.96886902e+02, 2.52049585e+03, 1.37722168e+03, 0.,
          4.15131445e+03, 3.92037915e+03, 1.05120203e+03, 0., 0., 0.,
          7.01141891e+01, 2.01461316e+03, 7.74534326e+03, 5.34718457e+03,
          4.13165088e+03, 0., 0., 0., 0. ]
      - [ 7.27695117e+03, 4.52730762e+03, 3.02458032e+03, 3.63002490e+03,
          0., 0., 0., 1.93816736e+03, 2.86147119e+03, 1.70718640e+03,
          6.98124634e+02, 6.79830872e+02, 0., 9.48604858e+02,
          1.81578979e+03, 0., 0., 0., 0., 0., 0., 3.15723779e+03,
          2.65606274e+03, 3.26704858e+03, 0., 0., 0., 0., 1.72463147e+03,
          5.96161426e+03, 5.11675244e+03, 5.59205566e+03, 0., 0., 0., 0.,
          0., 6.97722705e+03, 5.90107861e+03, 5.11960645e+03, 0., 0., 0.,
          0., 6.53287048e+02, 3.37333765e+03, 1.71442651e+03,
          2.00033691e+03, 8.50953552e+02, 1.33677148e+03, 9.01263611e+02,
          8.53588379e+02, 2.41789941e+03, 8.63863403e+02, 1.89504623e+02,
          5.51571875e+03, 3.75191919e+03, 3.92412061e+03, 2.61151587e+03,
          2.01240576e+03, 4.00330713e+03, 0., 1.43122330e+02,
          5.64476367e+03 ]
      - [ 0., 6.91210449e+03, 1.32662402e+03, 0., 0., 0., 0., 0.,
          1.56952225e+02, 0., 0., 0., 0., 0., 0., 0., 3.52382495e+03,
          5.99951904e+03, 9.35386536e+02, 9.67704346e+02, 9.02540833e+02,
          1.39933411e+03, 1.19961646e+03, 0., 8.42686218e+02,
          3.62667505e+03, 1.45079724e+03, 4.13770410e+03, 1.68564868e+03,
          2.29265039e+03, 1.89110352e+03, 1.86192053e+03, 0.,
          5.81744482e+03, 4.65883496e+03, 1.80719189e+03, 2.53475830e+02,
          7.56080688e+02, 1.42433777e+03, 4.79079639e+03, 3.87565137e+03,
          4.63186914e+03, 1.17921313e+03, 5.88615295e+02, 8.17538940e+02,
          0., 5.45721497e+02, 8.77006287e+02, 4.25670947e+03,
          2.58815332e+03, 1.03768974e+02, 0., 0., 0., 0., 4.01150848e+02,
          3.52469775e+03, 9.21494141e+03, 4.24004590e+03, 0., 0., 0., 0.,
          5.01294342e+02 ]
      - [ 0., 6.25664404e+03, 5.38481787e+03, 2.32266577e+03, 0., 0., 0.,
          0., 0., 0., 3.91402979e+03, 1.72658740e+03, 0., 1.88111664e+02,
          0., 0., 3.23396582e+03, 5.12182617e+02, 0., 1.45517786e+03,
          3.24637500e+03, 1.67731958e+03, 8.69027710e+02, 1.70641479e+03,
          1.71146533e+03, 1.89156580e+03, 5.42757751e+02, 1.54475244e+03,
          5.65314844e+03, 2.64150244e+03, 3.08119409e+03, 3.25641699e+03,
          1.19655444e+03, 0., 1.77098846e+02, 3.78747021e+03,
          5.74765820e+03, 3.92260913e+03, 3.23339551e+03, 1.82434082e+03,
          1.80984180e+03, 9.89949493e+01, 0., 7.77642139e+03,
          1.31407153e+03, 5.36484863e+02, 1.67057288e+03, 1.06539612e+03,
          1.65442700e+03, 2.84621924e+03, 3.03952979e+03, 3.55505469e+03,
          0., 5.81377640e+01, 0., 0., 1.66302661e+03, 6.94686572e+03,
          3.37465674e+03, 4.88373633e+03, 0., 0., 0., 0. ]
      - [ 3.29540479e+03, 7.37274170e+03, 1.07229956e+03, 7.92464523e+01,
          0., 0., 0., 0., 0., 2.08617480e+03, 0., 0., 0., 0.,
          7.73812622e+02, 1.23977185e+03, 5.07977539e+03, 2.32628271e+03,
          0., 1.73141345e+03, 0., 8.45270081e+02, 9.68599976e+02,
          1.56155933e+03, 4.95328711e+03, 1.18165442e+03, 0.,
          3.63698877e+03, 1.17677344e+03, 1.35470667e+03, 2.92399976e+03,
          2.74619678e+03, 3.09854797e+02, 4.38634262e+01, 0.,
          1.75982642e+03, 1.22730920e+03, 1.33986816e+03, 4.97254053e+03,
          4.47981250e+03, 3.75146191e+03, 2.47367871e+03, 0., 0.,
          1.00373285e+03, 2.18892670e+02, 1.35987000e+03, 3.36005371e+03,
          4.78613086e+03, 2.47200366e+03, 1.35882300e+03, 0., 0., 0., 0.,
          3.60138855e+02, 4.64134473e+03, 6.93310205e+03, 1.45924268e+03,
          1.69706812e+03, 0., 0., 0., 0. ]
      - [ 0., 5.15552148e+03, 8.47614648e+03, 0., 0., 0., 0., 0., 0.,
          1.15975635e+03, 3.38141968e+02, 0., 0., 0., 0., 0.,
          2.01921680e+03, 7.26150439e+03, 1.68045300e+03, 1.92879517e+03,
          1.12305432e+03, 1.73971268e+02, 5.17117004e+02, 2.54950974e+02,
          1.25006494e+03, 8.74258789e+02, 6.79291797e+03, 5.60177539e+03,
          3.77285181e+03, 1.92301697e+03, 2.91327881e+03, 2.00882031e+03,
          3.37781250e+03, 7.41626526e+02, 7.43378076e+03, 2.89776147e+03,
          1.24565259e+03, 1.56256909e+03, 1.21088660e+03, 4.13680762e+03,
          7.78997559e+03, 5.17760742e+03, 6.17206604e+02, 9.86598206e+02,
          8.23004761e+02, 0., 7.80193115e+02, 1.91785010e+03, 0.,
          1.68258276e+03, 4.97866406e+03, 0., 0., 0., 0., 0.,
          2.04896069e+03, 5.28737939e+03, 1.00452461e+04, 0., 0., 0., 0.,
          0. ]
      - [ 5.71913721e+03, 4.05167700e+03, 2.71444165e+03, 2.06387671e+03,
          4.16522314e+03, 1.76149609e+03, 3.15430725e+02, 6.40312424e+01,
          8.20441345e+02, 1.50362952e+03, 1.24534204e+03, 5.87274756e+03,
          5.45710526e+01, 0., 0., 2.22144104e+02, 1.91504224e+03, 0., 0.,
          0., 3.93960498e+03, 3.09766626e+03, 1.84537451e+03,
          2.66125513e+03, 0., 0., 0., 0., 5.24889209e+03, 6.43585352e+03,
          3.26419189e+03, 3.97194702e+03, 0., 0., 0., 3.65584473e+02,
          5.39641943e+03, 7.57622266e+03, 3.81763892e+03, 1.73602014e+03,
          0., 0., 0., 0., 3.55273193e+03, 5.45925781e+03, 5.11166565e+02,
          0., 1.73772937e+03, 7.97129578e+02, 1.67280066e+03,
          5.70289697e+03, 1.98401880e+03, 0., 0., 1.91518042e+03,
          3.80127417e+03, 2.68954126e+03, 5.13853564e+03, 9.11285352e+03,
          0., 3.84821106e+02, 1.03809998e+03, 9.82588440e+02 ]
      - [ 2.68368677e+03, 5.38714258e+03, 5.34132373e+03, 4.29295557e+03,
          0., 0., 0., 0., 0., 3.43530945e+02, 1.68656104e+03,
          3.27351660e+03, 0., 0., 1.92426605e+02, 0., 3.80376978e+03,
          2.19658829e+02, 0., 0., 2.32729370e+03, 5.33366992e+03,
          6.33392395e+02, 1.98174402e+03, 0., 1.80290723e+03,
          9.89829224e+02, 0., 5.64693018e+03, 6.73461426e+03,
          3.25162402e+03, 2.02053308e+03, 0., 0., 0., 2.03397375e+03,
          3.02013159e+03, 6.16348486e+03, 4.79351563e+03, 3.95493604e+03,
          0., 0., 5.45687500e+02, 4.59194385e+03, 1.09806018e+03,
          1.64263989e+03, 2.58184839e+03, 3.61734711e+02, 1.95379199e+03,
          1.48630347e+03, 4.45999121e+03, 1.80079053e+03, 1.78042859e+03,
          0., 2.96984844e+01, 2.00728418e+03, 3.26920483e+03,
          3.38096143e+03, 7.79671924e+03, 3.38750684e+03, 1.79447253e+03,
          1.26294235e+02, 3.95979805e+01, 2.04350623e+03 ]
      - [ 3.16227741e+01, 7.59600146e+03, 4.52753125e+03, 4.03887573e+03,
          0., 0., 0., 0., 0., 0., 4.49515564e+02, 6.60843384e+02,
          1.02630176e+03, 1.31601395e+02, 0., 4.61735840e+01,
          2.19294531e+03, 1.56058716e+03, 1.83095612e+02, 1.99000940e+03,
          5.27175342e+03, 1.34708154e+03, 6.12698936e+01, 8.19571838e+02,
          0., 1.87568787e+03, 1.72830518e+03, 6.97825146e+03,
          5.09819824e+03, 4.63414795e+03, 2.12685522e+03, 5.02542676e+03,
          0., 6.08111839e+01, 3.32827789e+02, 7.97734717e+03,
          5.42029114e+02, 5.25141602e+03, 3.20653247e+03, 3.63793164e+03,
          9.14108337e+02, 0., 2.77797949e+03, 4.40400488e+03,
          2.80080127e+03, 0., 7.43618164e+02, 3.63100525e+02, 0.,
          1.91658228e+03, 5.77416895e+03, 4.86957471e+03, 0., 0.,
          1.67056870e+02, 9.23017883e+02, 2.98376538e+03, 3.43839282e+03,
          8.70585742e+03, 7.15164795e+03, 0., 6.82641907e+01, 0.,
          1.24907967e+02 ]
      - [ 4.84679260e+02, 8.89370996e+03, 2.37252002e+03, 1.21300989e+03,
          0., 0., 0., 0., 0., 5.67281250e+02, 0., 0., 8.13098999e+02,
          1.00469080e+03, 1.07242749e+03, 5.19126160e+02, 4.95707617e+03,
          3.48199219e+03, 0., 1.23286218e+03, 8.78905273e+02,
          8.20047913e+02, 4.77529083e+02, 8.14475281e+02, 2.57188013e+03,
          3.13190552e+03, 0., 2.01752222e+03, 4.06316968e+03,
          1.77925793e+03, 3.37734253e+03, 1.99405444e+03, 1.10315942e+03,
          1.64347198e+02, 7.85413269e+02, 0., 3.56111890e+03,
          3.37722803e+03, 6.88005615e+03, 6.09899170e+03, 0.,
          1.76426782e+03, 1.79687524e+03, 0., 7.71894897e+02,
          6.81562927e+02, 8.32310608e+02, 2.55664185e+03, 3.74476221e+03,
          2.22733472e+03, 3.34901172e+03, 0., 0., 0., 0., 0.,
          4.04838916e+03, 1.07132637e+04, 3.55618921e+03, 1.75065955e+03,
          0., 0., 2.74492249e+02, 0. ]
      - [ 6.89910107e+03, 4.62379004e+03, 4.52236865e+03, 2.65095630e+03,
          6.68823730e+02, 1.47977637e+03, 1.01108167e+03, 7.48968445e+02,
          9.30053787e+01, 4.38406219e+01, 5.32282532e+02, 0.,
          6.01519775e+02, 1.43442676e+03, 0., 9.55196304e+01,
          2.03505859e+03, 0., 0., 2.03241174e+03, 0., 2.74600854e+03,
          1.95114685e+03, 1.75391504e+03, 2.68288159e+03, 7.51660828e+02,
          1.41852036e+02, 2.16350562e+03, 5.93671533e+03, 3.20286230e+03,
          7.57536279e+03, 5.42580957e+03, 0., 0., 2.84450348e+02,
          3.92850317e+03, 6.03146680e+03, 4.68035156e+03, 2.17719287e+03,
          1.48293762e+03, 7.27616357e+03, 1.57297009e+03, 1.69223181e+03,
          9.60012878e+02, 1.30193506e+03, 1.16098071e+03, 1.97194373e+03,
          1.84630981e+03, 2.62510449e+03, 4.31415869e+03, 2.79474487e+03,
          2.91826538e+03, 0., 0., 0., 3.40052948e+02, 7.55349414e+03,
          2.35119287e+03, 1.11303604e+04, 4.11871875e+03, 0., 0., 0., 0. ]
      - [ 2.38164764e+02, 1.04465137e+04, 4.17230530e+02, 2.79442505e+02,
          0., 1.71732346e+02, 5.51543274e+01, 1.82164764e+02, 78.,
          2.92700024e+03, 2.02829971e+02, 0., 2.75276062e+02, 0.,
          2.65872162e+02, 0., 3.65120825e+03, 6.60596875e+03,
          1.78409229e+03, 2.26931177e+03, 2.25441788e+02, 1.13005225e+03,
          2.47697403e+02, 7.37494385e+02, 2.15573654e+02, 5.69788525e+03,
          2.25313208e+03, 5.19333105e+03, 1.88883765e+03, 1.35531763e+03,
          2.48731787e+03, 2.77276031e+02, 3.49462866e+03, 3.55558936e+03,
          3.80463501e+03, 1.78093311e+03, 7.40590332e+02, 1.31134216e+03,
          8.11434143e+02, 6.32406592e+03, 6.69633594e+03, 2.27676318e+03,
          1.85443152e+03, 0., 4.02934235e+02, 6.63035461e+02,
          2.03690948e+02, 1.81730298e+03, 0., 4.66958008e+03,
          1.43818262e+03, 0., 0., 0., 0., 0., 1.80400562e+03,
          6.88691064e+03, 4.92936914e+03, 0., 0., 0., 0., 0. ]
      - [ 0., 1.17000566e+04, 0., 0., 0., 0., 0., 0., 0., 6.29030945e+02,
          1.22800652e+02, 0., 0., 0., 0., 0., 9.65231348e+03,
          3.31253052e+02, 0., 2.34418427e+02, 7.19584595e+02,
          3.06662689e+02, 1.24337036e+03, 2.28388824e+02, 5.18238232e+03,
          2.12150879e+02, 2.19465479e+03, 1.84161792e+03, 1.82463428e+03,
          1.75755664e+03, 2.90899292e+03, 1.98821899e+03, 0.,
          2.31740210e+03, 2.45257715e+03, 4.85489441e+02, 2.02360779e+03,
          2.81794824e+03, 3.78493433e+03, 6.16283301e+03, 1.86488098e+03,
          2.12674121e+03, 1.45386621e+03, 7.12610168e+02, 1.41315247e+02,
          1.68362402e+03, 6.91903198e+02, 1.69577539e+03, 1.79452625e+03,
          4.32191016e+03, 1.78212732e+03, 0., 0., 0., 0., 0.,
          2.04747034e+03, 1.25927422e+04, 2.90781104e+03, 0., 0., 0., 0.,
          0. ]
      - [ 7.69175439e+03, 6.90100537e+03, 3.38761401e+03, 2.30307764e+03,
          0., 0., 0., 6.18506714e+02, 9.27842407e+02, 6.01700500e+02,
          6.79972351e+02, 2.77304901e+02, 5.69210014e+01, 0., 0., 0.,
          2.01004431e+03, 4.33820229e+01, 0., 0., 0., 2.76253754e+02,
          1.89370520e+03, 4.76055237e+02, 0., 0., 0., 2.05464453e+03,
          2.02071277e+03, 3.58336719e+03, 7.25849219e+03, 4.04089966e+03,
          2., 0., 0., 5.09901953e+00, 4.04172803e+03, 3.60464551e+03,
          3.64274561e+03, 9.45009863e+03, 4.20142151e+02, 0., 0., 0.,
          1.41277917e+03, 1.05736572e+03, 1.80828674e+03, 0.,
          8.42123474e+02, 5.15210632e+02, 8.04381042e+02, 8.19446899e+02,
          0., 1.71738623e+03, 4.79551880e+02, 0., 1.00067734e+04,
          3.16363574e+03, 1.94300757e+03, 5.61107324e+03, 0., 0., 0.,
          1.83794556e+03 ]
      - [ 2.22970410e+03, 4.12690674e+03, 1.67784253e+03, 3.53427539e+03,
          5.45678760e+03, 2.96624359e+02, 0., 0., 1.56285266e+03,
          9.68979553e+02, 2.44305859e+03, 3.59491724e+03, 8.90002319e+02,
